#include "DNN_config.h"

int DNN(float mfcc[MFCC_SIZE]) {
	// Model parameters storage:
	// ====================================================================================================================== //
	// batch_normalization //
	// ====================================================================================================================== //
	float batchNormalization_gamma[MFCC_SIZE] = { 4.324136, 1.229415, 0.609678, 0.42765737, 0.5310922, 0.86847824, 0.4298318, 0.30366614, 0.3772167, 0.3699148, 0.34813836, 0.7494922, 0.3904369, 0.5807838, 0.51994765, 0.4416235, 0.32556733, 0.2970671, 0.33250412, 0.2709454, 0.30639544, 0.29216394, 0.24752134, 0.31152502, 0.26918456, 0.010109048, 0.7963735, 0.56450415, 0.50934696, 0.59210885, 0.5325895, 0.53776497, 0.527318, 0.53993934, 0.48716095, 0.4863213, 0.4638512, 0.71637154, 0.45591336 };
	// ====================================================================================================================== //
	float batchNormalization_beta[MFCC_SIZE] = { 0.95853525, -1.6902407, -0.2413861, 0.3467966, 0.29926902, 1.6907867, 0.037585568, 0.037987135, 0.1075868, -0.07092423, -0.10913768, 2.7240438, 0.20007694, 0.2887274, -0.34048918, 0.2598508, -0.3243644, 0.056348283, 0.27825502, -0.11807715, 0.020552455, -0.12150078, 0.20693657, -0.11742854, 0.71230936, -4.632641, 0.69906145, -0.33878905, -0.14259873, 0.4669622, -0.24443406, 0.670403, -0.11019727, -0.06343552, 0.0848265, 0.1227844, -0.20147061, 0.55334646, 0.04838983 };
	// ====================================================================================================================== //
	float batchNormalization_mean[MFCC_SIZE] = { 15.554097, -8.306569, -10.404623, -2.4146256, -9.153913, -6.275145, -6.851867, -4.3983717, -5.519117, -3.5560994, -5.154644, -3.9042115, -5.0795918, 0.012082641, -0.030428289, 0.002861016, 0.03095048, -0.02810321, -0.02443901, -0.027159303, -0.016531276, 0.023083732, -0.014466856, -0.013851123, -0.013754001, -0.009688026, 0.0009909243, -0.0040279804, -0.0006478389, -0.0013984429, -0.005067883, 0.005981055, -0.003872497, 0.006036498, 0.0034228489, -0.012621308, -0.0066924104, -0.013351029, -0.011943782 };
	// ====================================================================================================================== //
	float batchNormalization_std[MFCC_SIZE] = { 87.78395, 227.7319, 244.84592, 209.54306, 231.43074, 270.0141, 234.97043, 225.44267, 201.19377, 194.3113, 172.5166, 168.53983, 147.37021, 1.052251, 5.1648006, 5.2927656, 5.461035, 6.5966725, 8.19654, 8.300084, 8.59065, 8.968016, 8.8473015, 8.088666, 7.6795707, 6.843347, 0.16608718, 0.78535163, 0.8590638, 0.9688563, 1.1093179, 1.4654678, 1.5383394, 1.6287395, 1.7407141, 1.6601877, 1.6229868, 1.4847767, 1.337277 };
	// ====================================================================================================================== //
	float batchNormalization_epsilon = 0.001;
	// ====================================================================================================================== //

	// ====================================================================================================================== //
	// dense //
	// ====================================================================================================================== //
	float HiddenLayer_1_weights[MFCC_SIZE][HIDDEN_NODES_SIZE_1] = { {5.4791427, 0.79440427, -0.48938608, -0.18682764, 0.10439805, -0.40243298, -0.23393516, 0.23874786, 4.7618113, 0.44381142, 0.15313013, -0.010792155, 0.109844394, -0.37634596, 0.8415669, 0.15689738, -0.37033808, 0.6152778, 0.11328492, 0.39409474, 1.0323335, 0.46149155, 0.53609574, 0.52877444, 0.5721875, -0.4725481, -0.63961244, -0.8212867, 0.38143012, 0.046569735, 1.9774616, 0.9877639, 1.4675219, 1.8397887, 0.50035584, -0.26591492, 0.4158265, 0.27103645, 0.32339734, -2.021169, 6.707161, -0.2752768, -0.06588934, -0.7285594, 21.607542, 0.008964441, -0.5723933, 0.45247826, 0.091382556, -0.74749154, -1.2449985, -1.7961922, 0.34235498, 0.6238707, 0.3268233, 0.48872957, 0.6354489, 0.46078047, 0.5905913, 0.6164173, 0.91717327, -0.51718813, 0.15701853, -0.057834357, -0.35148615, 0.58393025, 0.07878181, 0.7453139, 1.2554803, 0.06893696, -0.23096713, -0.41818833, -0.7262272, 0.5954341, -1.1721566, -0.6551748, -0.026725883, -0.39448887, -0.059161033, 0.36664724, 7.1089745, -0.164381, 0.4474855, 0.16791801, 0.34739497, -0.14216879, -0.37614942, 0.20826162, 0.31579962, 1.0056268, -0.8404926, 1.9246533, -0.22030608, 0.051071826, 0.11714234, 0.3899013, -0.891723, -0.082007565, -0.121252336, -0.06158497, 35.960407, 0.33976927, 0.44384167, 0.14079802, 0.94721526, 1.5404571, -0.33336687, 0.14724584, 2.2151756, 0.6659455, 0.3168108, -0.68063515, 0.48612115, -2.3506353, -1.4745839, 0.21846537, -0.15775773, 11.579196, 0.20032969, -0.20934974, -0.093169324, 4.716305, -0.8605717, 0.10402941, -0.07294902, 0.08846258, 0.9147103, 5.5976562}, {4.4440007, 1.9790167, 9.785713, 7.1194673, -1.368305, 1.5947734, 3.1786067, 1.4653255, -9.499586, 0.10929831, 0.14905061, 9.760113, -0.050713584, 2.0855172, -9.374808, -0.20220101, -0.19337493, 1.0424075, 1.3784945, 0.17816639, 2.8860838, 0.7969272, 3.0265017, -0.5339487, 1.177079, 1.6910434, 1.713446, -2.1512446, 0.5023933, 1.0740106, -3.809881, 4.0891747, 0.07201151, 8.567046, 1.167037, -4.1704845, -0.13847247, -1.4206185, 0.17495064, 1.226467, 0.1972737, -11.704632, 0.9434272, -5.494961, -4.84334, 0.9136644, -1.2183594, -8.402621, 0.19152434, -3.1167917, 1.5546746, -8.9986925, -0.21456398, -1.0744838, -1.1201515, -5.606014, -0.35698545, -1.8769171, -3.2892003, 0.34950414, 0.93354875, 0.002858742, 1.0537585, -0.3351506, -0.26338467, 0.07405973, 4.5594363, 0.17307566, -2.952741, 4.5132027, 1.9578152, 5.9064455, -9.614627, 0.85367316, 10.16113, -3.3320327, 2.5011706, -4.230949, -2.9402215, 1.6478473, 7.056845, -8.466085, 0.9837469, -0.20711933, -0.12740617, -5.6601257, 0.58077455, 8.416466, -1.7656908, -4.7239175, -4.355639, -2.686405, 0.2099585, -1.7980537, 0.31200004, 0.3542009, -1.0754601, 1.3721398, -1.4931631, 1.7364491, 9.599572, -0.42420924, 3.0211406, 2.9887283, -6.928783, 4.6642327, -4.3256316, 0.3204153, -2.6977148, 0.39949763, 0.0038948464, 2.2581153, -1.0140092, -8.770164, -8.760092, 8.204397, -0.11460659, 3.1788294, 0.0440945, 1.4138777, -1.2599342, -5.2241054, 2.98468, 0.30219147, -1.2101283, 0.9025243, 1.074483, -3.7759326}, {-7.468745, -8.466913, -14.109724, 9.360602, 5.055643, 0.054275468, -0.26162153, -13.511918, -8.923384, 0.6561962, -2.2155209, -14.453769, 3.7427068, 2.226159, -5.020077, 0.42280397, 3.6446195, 0.6036863, 2.4691658, 0.20937745, -5.310255, 1.5513008, -7.948139, -0.012608213, 1.8589678, 2.2835832, -5.2018223, 6.0315514, -0.67924184, -0.05887352, -12.835065, -3.174243, 4.005149, 2.9188795, 2.109543, -9.457598, 0.015582976, 2.1612666, -4.287669, 11.474086, 11.626572, 2.604924, 11.523495, 3.45581, 4.131533, -3.4411113, 1.9298179, 14.8587885, 5.1020417, -5.3313026, -1.141223, 5.010483, -0.6712465, 0.13677046, 0.1405011, 3.9967525, -3.945523, -2.19127, -9.750767, 0.6229922, -2.2226515, -3.4826164, -0.05567884, -3.5611672, 2.4105127, 0.91500926, -4.2963643, 2.5963979, 8.202561, -5.2981787, 0.35940468, -11.488583, -11.981441, 1.4171895, 0.7036866, -22.337015, -3.212916, 1.4554963, -0.78768414, -0.6804377, 7.6842575, -0.94250935, 0.4917403, -8.916092, 0.9691984, 12.1900835, 7.8045354, -2.6515515, -3.9537973, -3.3836238, -10.918664, -1.5014856, 0.35048518, -6.1084943, -0.21856882, 0.18654306, -3.8963375, -0.4307276, -0.64737374, 3.03543, -10.212781, 0.12896657, 4.7207894, 2.1942916, -20.192303, -2.9714692, -3.3081856, 1.4978565, 21.841232, 0.13437466, -1.3269159, -10.851855, -0.6422363, 1.2759937, -10.803155, 6.6314263, -2.7326283, 0.24422947, -3.830481, -0.07207773, -3.3617053, 9.267038, -1.3607775, 3.2138982, 2.6149259, -0.7282894, -5.2784514, -8.556962}, {1.1519464, -11.165223, 14.416846, 12.439989, 8.481422, -5.712798, 3.452304, -5.7082124, -4.5115314, 0.54727936, -0.06260289, 15.232819, 2.4147007, 1.797592, -0.8136698, 0.24970928, -7.1034775, -5.8280506, -0.38353503, 1.778913, -0.6247589, 6.0009255, 6.226203, -0.18476993, -8.8219, 2.848814, -1.935538, 8.407069, 1.3367355, -1.0747625, -3.808409, -19.785397, -14.688308, -4.466153, 0.49875528, -4.016084, 1.9323479, 1.6109343, 5.37247, -6.388244, 5.3297276, -1.5081627, -12.235707, 15.378959, -8.232722, 1.1452321, 1.6109918, 5.1463923, -2.1079466, 11.113102, 11.044989, -9.580775, 0.18439206, 3.6461828, -0.97477794, 7.2116566, 2.023803, 7.0422087, 8.722278, 0.27524048, -3.8955595, -1.4018577, -3.5262916, -9.266783, 0.2912679, 1.028489, -1.0472662, 0.76248056, -11.952392, -13.054357, 4.27534, 13.582499, 5.2569027, -0.38750622, 2.2448962, -2.039693, -0.22486678, -7.0637884, 12.155634, 1.838522, -0.043110333, -5.8368783, 4.7316875, -7.6260304, -5.482666, -22.258923, 11.758839, -6.7246547, 11.783495, -22.372301, -13.12431, 1.686728, 4.2923546, -7.0586114, -1.4511086, 0.34294823, 11.927349, -5.21197, 10.028422, -1.9429725, -2.7119098, -0.40888146, -14.159527, -11.519478, -8.1578665, 14.730573, -12.596679, -0.8967256, -1.5857029, -0.12118996, -0.4161472, 9.091, 3.2163937, 1.3105141, -18.491922, 7.7072787, -2.2732973, -2.1256375, 0.37099472, 2.5571795, 4.5993505, 0.49068788, -2.6235151, 2.1478333, -6.4808874, 5.1496005, 3.0534852, 0.4836834}, {0.79060847, 0.21202496, -12.584847, 3.243815, -2.2201593, -1.3968092, 1.0347351, -1.1292038, 2.1381083, 0.21710196, 1.6919744, -11.33413, -2.2520623, 0.95303696, -0.5736273, -0.5088319, 7.6710534, -1.2671529, 0.6679239, 0.021065257, -3.9498422, -9.435863, -1.8018234, -0.5943634, -10.510732, 0.3857506, 5.9934354, -19.77576, 0.12367586, -0.2841892, -0.029511817, 9.515622, 2.9081216, -5.8299465, -2.94232, 13.44599, -0.9302129, -5.3914557, 3.6480563, 8.268069, 5.5003576, 10.604881, -17.523552, 10.93665, 6.322467, 3.2318327, -4.908129, -12.182147, -2.0830092, 8.411909, -5.482297, 9.462819, -0.21547583, -6.1158757, 0.048828464, -0.9199597, 2.5433114, -2.746462, 0.29226524, 0.6758076, 0.910506, 5.586441, -0.2773849, -5.081002, 1.9140377, -5.9203916, 4.0235615, -5.4147573, 14.199537, -5.5682445, 9.950191, -6.703499, 0.6700137, 2.1702697, -3.2299132, 5.4709606, 0.24480681, 2.0439236, -4.0487785, 1.1356986, 3.6400812, -0.62141716, -0.31641147, 10.98063, -0.18432994, 13.145934, -6.6366134, 4.1584477, -6.0386643, -5.1097517, 6.8385267, 2.9173403, 2.3519275, -0.49181828, 0.1319887, 0.21468076, -17.421734, 1.3487266, 1.4479364, -8.4351225, 2.7815804, -0.55139965, 8.373744, -6.819458, -15.848642, 8.870881, -10.409172, 2.043353, 5.4156203, -0.2804339, 0.8508874, 8.311013, 5.1900697, -4.778546, -15.78029, 5.000985, -0.19771476, -4.1557093, 3.738025, 0.26965135, 3.0071344, -3.1522195, -0.88477695, 0.6658828, -0.2731289, -2.6324103, 0.7125224, 0.68104124}, {10.555178, 7.50693, 5.586881, -2.62547, -6.87724, 5.3289075, 0.0796283, -0.4093588, 6.609053, 0.07598286, 0.14254826, -2.349274, -2.461799, 0.25969964, 4.7950277, 0.051591717, -0.6959367, 0.004712354, -0.9235194, 0.5368607, 2.149007, 2.3096523, 1.5276045, 0.16681828, -0.79615396, -0.15348093, -8.290969, 4.038403, -0.7445853, -0.20156945, -6.844175, 5.550646, 7.690673, -2.3755677, -1.6192471, 0.17081589, 0.11365475, -2.610486, -7.7240753, 9.855285, -0.14283775, 0.6205977, -0.113618165, -8.000361, 3.3547215, 1.5239466, 3.6024797, 7.103674, -1.8610039, 2.6887894, 2.853744, 4.214647, -0.33497483, 6.7548604, -0.3678413, -2.0044115, 1.125286, 3.494163, -2.849706, 0.011336994, 2.6755955, 0.87769026, -0.74032044, 2.754701, 0.55028766, -2.3127532, -4.224192, -2.7889783, -8.532523, -0.10517976, 5.0523295, 5.618458, 3.2427688, -0.0688916, 6.954263, 2.5965292, 0.63024616, -5.0853205, -7.450013, 1.5608151, -0.83263564, 0.13222858, -0.049395844, 1.6722257, 0.9335279, -6.6248217, -6.8383174, 0.95479804, 2.9974573, 0.1797251, -4.664413, 4.9548664, 1.0243242, 2.8698113, 0.2894648, 0.45201722, 8.215857, 2.5551395, -5.396734, -3.112562, -5.930939, 0.19607157, -1.7162204, 3.1695566, -1.7994986, 7.474797, -4.141262, -0.45446005, 0.40175322, -0.7379527, -1.004256, -7.5170646, 0.8553752, 6.599815, -5.208967, 5.0830874, -0.03929058, -3.5816545, 2.7144437, 1.3938302, -4.340498, -5.637743, 0.2653941, 1.2256153, 3.5691838, 1.4694431, 1.8139439, 1.3145124}, {6.8164325, 7.019908, -1.8269267, -1.9145977, -0.6991099, 0.7028737, 1.9274747, 1.7877036, 7.101039, -0.1563067, -4.0892353, -5.0746646, -7.278565, -1.7575312, 6.532136, 0.28656736, 0.11380065, 0.7154819, -1.456432, -1.2199138, -4.021518, -4.131341, -2.2836492, 1.2124932, 7.800047, -0.20397463, 10.377233, 1.4247849, -1.249864, -0.58621675, -11.067241, -5.5739536, -17.474571, -9.461186, -7.177408, 4.639861, -0.34276593, 10.923727, 12.907203, -5.436183, 3.531804, 4.988569, 2.8596117, -6.8701878, 4.504927, 1.7078699, 3.4913242, -6.0351477, -7.215147, -13.307804, -5.0976872, 7.781126, -1.5596497, -15.548334, 2.5758598, 1.9507459, 0.79197025, -2.132957, 8.59679, -2.7619698, 3.6728067, -5.4341974, -6.581054, 2.4207373, 0.07404068, -5.1042166, 3.1251655, -2.8476882, 12.083802, 9.858133, 6.702334, 0.9384302, -0.8990291, 1.7279454, 6.7949247, 0.10838013, -4.09403, 5.433807, 3.1881926, 1.0966684, -3.2019255, 4.3249774, -5.056839, 2.575469, -0.061338894, 8.4104185, -7.0148306, -3.152897, -3.2188587, -5.058359, -3.9952626, -3.873411, 3.891533, 10.754766, -0.89092517, -1.6782737, -9.128574, -3.3022568, 4.7846065, 4.588439, 1.9325182, -2.8120553, -0.19370577, 10.389038, -9.651371, 11.178655, -5.099749, -2.7557857, -1.9791445, 0.9057432, 1.235358, 16.840292, -2.0089324, 0.46511188, -9.64891, 5.8069916, 0.6710884, -3.9443603, -5.484254, 1.9719605, -6.1330347, 6.187771, -0.6506882, -1.6496068, 2.0236983, 2.0811949, -0.12738921, 2.5789213}, {7.982758, -11.1104555, 0.7170185, 0.0015965293, 9.52273, -5.255332, 2.7752962, 1.7845913, 11.250399, 1.1712798, 1.339121, -4.9873323, -0.77462655, -0.3728126, -1.3798201, -0.4667909, 6.1322417, -0.5352289, -0.6076625, -1.7244992, -1.4831765, 5.2901874, 8.7716255, 1.2543281, 5.4165235, -2.1548474, 0.33758774, -1.3997296, -0.6107791, -1.4376556, 7.055312, -13.80814, 5.3531632, -4.6073313, 0.22064807, 6.822526, -0.39498064, -5.4755645, -21.73021, 0.47021452, 2.0977695, -0.6776334, 8.026388, -20.045609, 11.455421, -2.574504, -17.323235, -1.0971338, -0.69181, -3.303509, 9.440229, 3.0973904, -1.5481766, 19.218454, -1.1773456, -5.8461633, -1.1085483, 3.1149423, 10.3305235, 1.1039021, 1.5688213, -6.1313853, 16.275356, 5.3721156, -0.23480837, 6.7842603, -1.4868925, 6.2138815, -12.996892, 9.578133, 9.424255, -9.001311, -0.01466919, -1.8841496, -13.174859, 3.9518957, -0.17413697, -23.0004, 15.730809, -1.8037927, 2.9612684, -4.314535, -2.2025115, 11.698224, -4.12142, -0.9224934, -10.83349, 5.5883636, 10.189749, 9.1346245, -3.1433768, -22.768766, 3.7048995, 9.24118, -1.2805052, 0.23916106, 12.836201, -4.8432, 4.69396, 8.356681, -6.4237323, 1.1812874, -3.327172, -2.226879, -5.5455384, 3.3484576, -1.3295406, -2.3161602, -6.975323, -3.1139028, 0.48838618, -12.944109, -2.9294634, 11.32145, -16.345812, 5.519214, 4.149951, -4.3350625, -8.593472, 1.3731693, 7.77878, -5.2148757, 0.41880095, -0.4204179, -4.7181544, -7.208674, -3.2092016, 3.5249476}, {3.8757336, -6.3298035, -1.2524205, -9.709546, 0.80150944, 4.3137875, 2.4228828, 2.57186, 4.07271, 1.2243618, 3.3529806, -9.551648, -1.0483114, -1.4098343, 2.6181328, -0.09866692, -1.3111718, -0.6071255, -0.7343996, 1.1109272, 0.0360709, 8.4063225, 0.7433425, -0.40925327, -4.256546, -1.3895493, -16.904285, 4.383183, 1.4632796, 0.04828429, 9.15836, 8.36004, 6.2660804, -1.67986, 3.4249644, -5.4273424, 0.7221897, -10.224401, 8.362211, 9.106683, -3.7437565, 0.3634308, 6.653536, -1.0487267, 4.5424366, -1.1085486, 13.550811, 3.5940523, -3.9551985, 6.294463, -3.6540046, 10.0440445, 1.3335052, -9.64193, 0.44609708, -0.7276343, 0.38815743, -5.9187894, 2.0219254, -0.4662172, 2.50935, 6.3734546, -15.635972, -6.153572, -1.2309915, 6.3336773, 4.3715916, 7.843543, 9.226245, 9.380157, 5.6258206, 4.595048, 1.0239486, -0.124171756, 17.190641, -7.177619, -9.590912, -4.1018944, -3.051579, -0.091389015, -3.606483, 5.6630387, -1.3913912, 9.139302, -3.0731525, -5.1596713, -2.5491037, 4.7901654, -12.107054, -1.4697603, -0.5653668, -7.5286016, 2.6938438, 4.0726604, 2.5855956, -1.3912514, -4.308432, 0.58322567, -9.745903, 3.3643095, -5.0991364, -0.46698838, 0.42783812, -9.227512, 1.8630683, 2.9621058, 3.0279462, -1.1336801, 10.924171, 2.3612373, 3.2028742, 0.45730108, -10.396166, -2.2303934, -12.779625, 3.1259527, 2.2947817, -2.0368829, 5.0101967, 0.8499837, 7.2453165, 15.332903, -0.18332344, -3.986253, -6.5132256, 8.012232, -3.883556, 3.2400253}, {7.2937346, 6.19512, -6.688194, -7.9892917, -4.3822217, 4.7735567, 5.1011405, -14.214422, -3.081463, -0.2928987, 0.3007603, 0.41777688, -0.7772768, 1.7797078, -0.16794282, -0.40127385, -1.2068754, 0.5789889, -0.47483477, -1.7693235, 3.530173, 7.978675, -1.1715816, 0.4999333, -5.2405515, 0.81725925, 21.235878, -0.38373712, 0.055354767, -0.54878855, 14.355548, 2.994273, -10.69619, -0.9192864, 1.2660259, -3.2528768, -0.10633964, 7.881242, -4.415886, -6.140132, -2.238154, 0.32660264, -12.013125, -4.2591734, -1.3141283, -3.1086001, -2.2943118, -3.8931673, -0.9258717, 3.4754066, -0.67086035, -3.9647102, -0.5674237, 9.995275, 0.74151486, 6.2613373, 3.5005965, 1.2709817, 4.4389586, 1.0574813, -0.6801576, 5.6891522, 12.830115, -2.714718, -0.23931564, 9.165249, -1.661983, 3.085872, -5.7970667, 7.9553013, 5.2698765, -14.696692, 0.82531303, -0.2209376, -13.457064, -8.512461, -4.059379, 0.28590617, -4.2723002, -0.5654074, -0.9317997, -2.8733068, -1.34811, -12.005605, 1.6222152, 1.7992494, -1.9019257, -1.739245, 14.943647, 0.41010082, -7.707582, 1.3493894, 3.3469484, -0.1340994, 0.4665658, 0.47023332, -0.058821574, 1.3697917, 9.563331, -10.75909, -11.34869, -0.5490106, 2.8134954, 2.1203098, -3.9633615, 3.1397328, 6.3282895, -0.62200457, -3.8633993, -0.9818619, 3.2158232, 2.951253, -3.9974558, 4.248837, -11.28301, -0.8295456, -0.19818498, 3.3262286, 14.252986, 3.366693, -4.1990604, 5.522752, 2.9465408, -2.1350842, 4.235178, -10.577975, -2.5777876, -4.6202426}, {-3.1356184, -2.502973, 5.828542, -6.4701066, -2.098978, -9.409899, 4.1826506, 5.1531754, -6.3204064, -0.8792506, -4.0801477, -4.4310045, 0.5284227, -1.6692891, 5.0701346, 0.84002656, 2.6443658, 0.9337142, -0.9590693, 1.5251702, -8.55069, 4.6881623, 3.632715, 0.6980361, -0.5234412, -0.8035863, -15.8441515, 5.4210696, -0.629829, -0.44478497, -7.402726, 1.7580673, 6.2129297, 1.6546288, 1.1825317, 4.7486377, -0.91757005, 7.8719387, -1.3192525, 10.7673235, -8.15901, -1.172112, -2.3033657, 3.4258695, -3.7992723, -3.1141036, -10.77811, -1.0376555, -0.5888411, 2.451524, -0.088060126, 5.2706017, 1.6237375, -6.4794755, -2.7238536, -4.991156, 3.923249, -2.7813902, 6.50498, 0.81790775, -1.0264227, -4.6168404, -3.2607834, -4.6090355, -0.50850457, 7.656363, -1.375819, 3.1335025, 3.6674576, 9.47848, -0.45621008, 10.308573, -0.7865913, -0.27270228, 9.958916, 1.8211682, -9.6196375, -2.0892189, -2.7982879, -3.8407655, -3.1820045, 0.13993251, 0.8033772, -10.673914, 4.5304427, -0.50617594, 7.533647, -1.4467419, -15.932518, -1.7898892, 0.4590961, 6.1618543, 3.1717126, -6.229033, 0.81628644, -0.24820556, 4.2995925, -0.34053454, -3.4701152, -8.711979, -0.81667703, 0.14077166, -4.8628726, 9.36983, -5.9320335, 1.4390177, 7.006489, -1.0384182, -1.3192756, 0.48283532, -1.2786738, -3.6065292, 4.4068327, -0.7721617, -15.179864, -2.3784227, -2.886815, 4.0064836, 6.360451, 1.3959565, -6.0155606, -9.219174, -0.77463895, 0.14948586, -6.210147, 12.314722, -3.6496615, -0.88081133}, {17.218878, 0.28520173, -3.5843089, 1.1248033, -1.1668868, -0.9025087, 1.7606524, -0.84496695, 7.3643074, -0.1321407, 0.42518342, 1.0496625, -0.6423502, -0.12155895, 0.68629587, 0.028346881, -1.3345495, 0.74089694, -0.3928116, 0.0649993, 7.390862, 6.575831, 1.6183751, 0.29919192, 4.9067388, 0.10805529, 5.364848, -1.8959082, 0.28226677, -0.35744327, -2.5059044, 0.08937687, -2.3776226, -2.5119758, -0.29305527, 0.03284096, -0.075747706, -3.9378905, 2.5795941, 2.0043442, 14.157135, 0.13297993, 3.9308245, 0.72093153, 1.2708629, -0.45444518, 7.7754, 0.033379037, 1.166905, -1.7710247, -6.3430805, -2.5458899, -0.12844764, 3.4443314, -0.53309625, 0.590085, 1.3634614, 1.0195224, 2.3526194, 0.59321576, 0.6726066, -4.2609973, -1.6085906, -4.490565, -0.15120423, 0.7344659, -0.3442746, -0.9532325, 0.3989176, 5.7022057, 2.952915, -4.3296328, 0.804615, -0.35309237, -4.265655, 0.018659651, -0.60111064, -4.613834, 4.3715878, 0.21631883, 0.69339937, -1.1584977, -0.23403737, -2.9275336, 0.6638278, -0.45838082, 4.9660745, 1.4033304, 7.3709593, 4.111939, 3.447427, -3.3199754, 1.9952565, -2.6653085, 0.062373087, -0.16024141, -4.0535765, 0.6745272, -4.4970827, 2.00458, 1.7141196, 0.5827041, 3.5876758, 2.3452656, -0.9319414, 2.8028054, 3.830268, -0.20212097, 0.17084032, 0.0993547, -1.0154316, 0.36828336, 8.15036, 0.11364103, -2.8776636, -2.7911587, -2.414907, 1.978206, -2.6252105, 2.3918097, 0.723408, -6.259452, 0.9508874, -0.419478, -4.8778267, -5.5596504, 5.779162, -3.4588246}, {15.222232, -5.5044394, 9.8191805, -7.173537, 3.4334679, 7.72772, -2.0860207, 2.160671, -6.874644, 1.3673762, 3.6393042, 1.037694, -2.2660604, -0.7046382, 15.923552, 0.057642758, 3.916563, 1.09089, -1.8181971, 1.1202636, 5.6981335, -0.26072732, -5.683756, 1.5706486, 1.2501451, 0.77371967, -5.153691, 1.0269762, -1.3280418, 0.7720058, -14.400321, 10.122266, 3.8753316, -4.3096414, -4.07099, -13.493946, 0.68013364, 5.83659, -1.9077001, 1.3016554, -3.973812, 2.0300822, 5.7626987, 1.2842593, 0.089088455, 1.3062398, -8.551038, 0.3942892, 1.0745224, -1.749092, -14.887282, 5.763922, 1.4786918, -3.1096668, 1.413044, 3.7950385, -2.4345214, -2.2507293, 1.4965271, -2.0648186, -1.4762048, 3.8048263, 0.5394959, 7.4162087, 0.74021167, -18.670277, 1.0146418, -4.84973, 0.8013788, -4.1681714, 3.1134167, 13.909421, 0.8788498, -1.7658432, 6.29842, -1.1175364, -9.720202, 10.880282, -3.001914, -1.7190424, -2.6952825, -1.5202428, -1.4480295, 8.237871, -4.9570704, 0.69562167, 10.766136, -1.7547162, -8.5781555, -4.4023476, 6.863248, -3.4445016, -0.1693233, -7.6278715, -1.0522705, -1.5397092, 9.832503, -4.148985, 2.911669, 6.2625813, 2.6864328, -0.66975176, -3.170859, -10.835907, -3.996626, 2.8502371, 3.084268, 0.4765519, -5.4572406, -0.24877042, -0.038256124, 3.0558984, 0.8085172, 0.33277893, -11.186877, -7.6552615, -0.44105417, 2.0309381, -12.800315, -0.4510195, 8.594755, 1.9249213, 1.6235778, -2.1126986, 17.667997, 6.173402, 9.75389, 0.86183643}, {6.6146092, -0.3035311, 0.62428725, -1.7018827, 0.18566927, 0.14445676, 6.47073, -0.27456102, 1.1681645, -0.8931923, -0.84895426, -0.9571502, -6.337579, -0.2665872, 1.6819919, 0.6041631, 0.3469501, 1.5672486, -15.22749, 0.7451614, 0.9901035, 1.5552003, 1.5653776, 1.4568882, 0.84852064, 7.4127426, 1.6062889, 1.5924795, 0.18812048, -9.100538, 0.35423523, 0.5513518, 0.77588886, 0.18187223, -0.017925804, -0.033070643, -0.53423065, 0.2297028, -0.42882594, 5.244491, 4.7602205, 0.1295988, -0.9140786, 0.90917295, -1.5974222, 3.5466151, 0.19324397, 0.14865501, 20.390999, 0.55520946, 0.24746156, -0.61348444, -1.4091983, -0.787832, -27.496304, -1.3111616, 6.508064, -1.5243818, 0.39543876, -1.6321536, -0.10192415, -0.33812317, -0.20623673, -0.1370365, 0.5427911, -0.16468188, 0.25689286, 0.42960057, 0.5913169, 0.3466625, 0.501357, -0.14197154, 0.086594075, 9.735163, 0.9853889, 0.4188901, -0.0900433, 0.22721635, 0.66083074, -0.8340552, -0.3275829, -0.34097826, 12.251725, 0.569851, -1.5675308, -0.30184117, 0.9928709, 0.17343359, -0.43296674, 0.096357815, -0.5650737, -1.0148555, -0.62414324, 0.6852878, 5.2732983, -0.073126726, -0.7737065, 0.22633469, 0.51157725, 0.40300828, 0.4294906, -1.1790173, -0.13134128, 0.95133674, -2.212305, -0.34170195, 0.2504369, -1.7157501, 0.11432647, 0.0025204103, 3.0783737, -0.3810592, -0.23481725, -0.3177549, -0.9339137, -0.7672021, 1.9681208, 0.035796937, 1.4611543, 0.5069254, -0.8280821, -1.267075, 0.8202481, -24.447582, -0.018338887, -0.09503977, 0.29519597, -0.23272471}, {-4.8720713, -1.4090979, 0.4533085, -0.7321664, -0.9320248, -0.42936182, 5.862333, 0.89423394, -0.91999793, 13.43286, -3.3601682, 0.7732278, 2.2613373, 3.8351076, 0.97551787, -2.1277242, -0.25773928, -3.6931212, -18.483923, 0.29183254, 0.5875676, 1.0084864, 0.13864832, -11.038783, 4.2668114, 14.150135, -0.17164062, -0.4161901, -0.88858324, 6.4764385, -1.0816422, -0.40072143, 0.845364, -0.50418717, -7.484773, -0.12624574, -3.7205455, 0.14106882, -1.0389816, 7.9940147, -1.0925003, 0.87741417, -0.63211673, -2.2955961, 2.2482927, 3.7740228, 0.04417556, 2.4994266, -3.555865, -0.07761339, -0.42518282, 0.58195716, -1.8556333, 0.15288788, 14.154581, -0.32735315, -5.9128523, -3.5347018, -1.0352046, 0.22131571, 0.71636957, -0.06002928, 0.6590974, 0.2787489, -0.8167487, 1.1038249, 0.1028574, -0.47308186, 0.095258616, 0.91641945, -0.77346677, 0.07136981, 0.60583186, -14.661555, 1.1188186, -1.3357992, 0.18737443, 1.0151755, -0.6325476, -5.888755, -0.23190741, -0.9705615, 9.024907, -0.28456184, 4.1562123, -0.3900115, 0.5020515, 0.41874218, -0.14059296, 0.0073601953, 0.5354959, -1.2144213, -2.3742359, -1.4977565, 4.0157075, -1.4920034, -0.40515268, -3.1758482, -0.6673009, 1.5241503, 0.06292807, -0.293779, 1.3151491, -0.15846989, 1.7932225, -1.0794185, -0.556816, 0.09146446, 1.0089185, -3.3023248, -3.8405817, 0.2531477, -0.064739436, -1.6102487, -1.9339359, 0.26097867, 3.768584, -0.14043938, 0.73360413, 4.538024, 0.08638349, 1.4854515, 4.0576305, -7.372188, 0.055389076, 0.17896272, -0.564415, -0.18953845}, {4.246749, 0.5629254, 0.27035695, 1.4033694, 1.0578868, -0.32234275, 3.3690417, 2.0214956, 0.51690286, -7.958468, 1.200945, 0.5828152, 10.035298, 1.06013, 2.3156214, 2.8119335, 0.35125703, -9.654636, -2.683704, 1.1519847, -0.6345012, 1.4455527, -0.07497278, 3.338765, 3.413767, -0.7063529, 0.557035, -0.85049456, -0.404967, 18.802988, 0.12642334, -1.5149258, -0.7114071, 0.56668824, -13.47361, -0.19324075, 4.4873123, -0.03876755, -0.69630396, -6.455272, 5.449735, -0.68003076, -0.87706524, -0.898647, -0.70926, 5.282811, 1.2652669, 0.113919854, -4.3173, 0.23663557, -0.6071022, 0.09646395, 0.70037895, -0.3630687, -7.848238, 1.2976918, -9.910498, 0.5199042, 0.32966405, -0.048903197, 0.9786941, 0.26248312, -0.45737657, 0.12068528, -1.9517093, 0.96943885, 0.100198425, -0.32520473, -0.13805065, -1.2330284, 0.29609424, -0.39699942, 0.35697523, 6.681295, 0.9596331, -0.1738214, -0.6662409, 0.28164607, -0.86442566, -10.394852, 0.3690288, -3.1762817, -3.9142594, 1.516289, 5.5582304, -0.7006847, -1.3576702, -0.44906712, -0.18840356, 0.3918244, -0.6758176, -0.58272356, -2.9077067, -1.223566, -15.304683, 0.6411579, -0.11212313, -5.8520417, 3.2516847, 1.7140561, 0.5249619, -0.113204695, -0.7522329, 1.1520996, 1.4291935, 1.3420639, 1.0909659, -1.6926726, 0.28903311, 6.412854, -6.415941, -0.92977077, 1.1552933, 0.6846972, 0.3235411, -0.55440104, 4.8306627, -0.39726734, -0.16294329, 4.1634626, -0.4990469, -0.34583887, -4.819232, 11.113808, 0.322915, -0.22400014, 2.0465515, -0.9759383}, {-4.4092603, 0.08091038, -0.32331198, 0.4275361, 0.5628365, -1.3777122, 6.511129, -3.4640248, -3.0255332, -10.358335, 10.742327, 0.72779924, 9.99729, -2.3798773, -0.05017586, -6.139798, -0.13167563, -2.2314255, -3.9861667, 0.23167662, -1.1633399, -0.025144972, -1.8208119, 0.8593624, -1.7313902, 4.798272, 0.38216823, 0.9167767, 0.031663377, -3.8166564, 0.44970518, 0.93175644, 0.4878837, 0.71199447, -8.954489, 0.26325884, 0.22136514, 0.44807538, -0.5979437, 2.6896842, -0.6163846, 0.7258269, 0.26124087, -0.30837503, 0.45440024, 9.358467, -0.592439, -0.32113862, 4.771449, 0.25896475, 0.6402593, 1.0034412, -0.90387046, -0.04032049, 8.137915, 2.008832, 4.1713476, -1.6920748, -1.681288, -0.4121508, 1.1087128, -0.119954154, -1.7293667, -0.70656645, 0.75902456, 0.20000118, -0.03092568, 0.5267698, -0.22868958, 1.0189254, 0.41963416, -1.5261896, -0.80971897, -4.9851947, 0.46465623, 0.6158448, -0.22148943, -1.3417281, 1.2410433, -12.458626, -0.42649335, 0.84335977, -5.832816, 1.723006, -5.1253977, -0.054674372, -0.13404426, 0.6435297, -0.024782276, 0.5357631, 0.96091336, 1.9442537, -3.9007313, -0.21029235, 16.624794, 1.6726063, 1.5825168, 9.75622, -1.6486335, 0.4643003, -2.2683284, -0.41634533, -1.1146033, 0.4471907, -1.7955488, -0.48894206, 1.3307438, -5.9105544, -1.0255477, -5.9957232, -6.1741104, 0.13431439, -0.005449475, -0.7315287, 0.5701119, -0.3261777, 1.1030461, 1.0658469, -0.26307914, 3.453354, -2.000984, 0.8261089, -0.63764733, 11.025437, -0.88409644, -0.07588327, 0.20177862, -1.9378726}, {-0.050117582, -0.4637679, -1.2321143, 0.652363, 0.33356622, 0.9206033, 5.8657227, -1.8980142, -2.3416214, 9.616892, -3.5701523, 0.563815, 2.8206613, -1.4812882, -1.3882084, 9.960129, 0.4113074, 11.682936, 3.2803335, 2.1782243, 0.7104068, 0.35563472, 0.23088849, -2.0910375, -6.6719127, -3.1000078, -0.27887982, 2.0196173, 0.59836864, -6.14611, 0.8826063, -0.14525676, 0.14739494, 0.6569688, -3.745858, 0.2798489, -10.27973, 1.1783336, 0.6505343, 1.7076734, -4.084412, 1.9990484, 1.816295, -0.50244236, 1.5068388, 5.782182, 1.1103982, 1.6771847, 0.1383847, -0.027810782, -0.10612186, -0.7864843, -1.8612252, -0.23150323, -1.4474566, -1.3971744, 7.450248, -0.8045042, -0.5936621, -0.15984306, -0.25549027, 0.06034724, 0.12026927, -0.16771819, 0.70869714, 0.89758074, -0.06875505, 0.36376083, -1.1451188, 1.5822185, 0.43291074, 0.44538122, 0.070219904, 0.56372577, -1.7102026, -0.2555441, 0.12629049, 0.69703424, 0.55531645, -6.749185, -0.4039364, -2.7739265, -7.9063706, -1.1181753, -8.3160305, 0.06183384, -0.7639059, -1.6458098, 1.556498, 0.82883555, -1.0286307, 0.099572115, -3.7113223, 0.4506564, -9.348527, -3.9563339, -0.68706703, 13.284726, 1.468687, -0.9069975, -0.37644053, -0.4305847, 0.38483882, 0.4060821, 0.16658019, 0.7628564, -0.14625119, 2.018484, -0.26931357, 6.115686, -4.13154, -0.13806264, -0.91568524, -1.4541565, -1.2891116, -1.7641367, 4.9725547, -0.48519173, -1.2109097, 2.6612883, 0.15491365, -3.1448116, 0.7515677, 9.710717, 1.3714219, -0.3271643, -1.0541873, 0.7274242}, {12.909108, -0.45124856, -0.6247196, 1.7802216, -2.3056989, -0.49921477, 5.425591, 1.3570818, 0.1690112, 1.2664022, -15.036804, 1.547138, -7.0005717, -2.171335, -0.721802, -10.241058, -0.24222015, 9.692344, 3.3125308, -2.0908828, 1.0067612, 2.5224028, 1.855415, 2.003153, -3.135396, -1.4262562, 0.2858881, -2.001191, -1.3565568, 1.6127512, -0.86951774, -0.26523224, -0.069581896, 0.8622642, 9.988349, 0.2611358, 9.925745, -0.15282483, 0.59245384, -2.6162825, -3.4905403, 0.78375584, -0.56218743, -0.16113718, -0.21644638, 1.5292801, -0.2220804, -1.1003928, -4.8477488, 0.44406718, 0.59657025, -1.2126533, 5.389944, 0.61161035, 0.80754644, 4.1626997, 12.383699, 2.0641742, -0.031120563, -1.7440908, -1.0348622, -0.06360502, 1.4648566, 1.146094, 1.6432903, -0.7675781, 0.03749321, 1.4014452, -0.003907209, 0.31327963, 0.5856834, 0.90840656, -0.8365026, 0.6516247, 0.3879403, -0.82585514, 2.29898, -0.21886517, -1.5609218, -1.1539421, -0.61077124, -1.7150533, -6.387782, 0.0698525, 3.120269, 1.108354, 2.4258118, 0.17150971, -0.62221307, -0.6950823, -0.7215655, -0.3398459, -3.7922983, 0.6088558, -1.3728313, 11.838748, 0.7750346, -6.3639207, -1.2830026, -0.65890515, 1.4128929, 2.0064292, 0.8677735, 1.6951208, -1.0117856, -2.2406273, -0.2594715, 0.10476689, -0.1796586, -1.2512457, -8.242268, 0.11456681, -0.5881893, 1.1859581, 1.9157163, 0.3082834, 3.6889703, -0.9805253, -0.7903874, 1.1409836, 2.772539, 2.5145874, 0.20110174, 5.0943685, -0.19677392, 0.3150591, -1.437551, -0.8087665}, {-3.5969756, -1.3862016, -0.2260841, 1.2712181, -1.7027147, -0.77916455, 3.7473104, 0.6946963, -3.2492127, 0.3225093, -1.2051464, -1.0421903, -8.379545, -2.4440315, 0.57063156, 9.9576235, 0.84532934, -6.368178, 5.0565295, -0.35242522, -0.6524073, -1.5734818, 0.020208767, -3.057186, 3.8783672, -4.0222054, 0.37232047, -1.109828, 0.5201052, 1.7038631, 1.8208069, -0.1866868, 1.0733153, 1.0697706, 11.213079, 0.3360095, 3.6439867, 0.3649976, -0.81234443, 6.344328, -6.390848, 0.1908625, -1.2260379, 0.65072864, -1.6224585, -5.5708966, 0.48048866, 0.46087068, 2.3974643, 1.0252589, 0.45567757, 0.23055819, -8.056145, -1.1474266, -0.25553164, 0.82885665, 5.215323, -2.3981023, 0.5150417, 0.73808247, -2.029569, 0.72479844, -0.10913688, -1.125629, 0.9132288, 0.004966622, -0.35437772, -0.13203865, -0.002431377, -1.9079924, 0.18396305, 0.12447472, 0.5901794, -0.66829354, 1.5268333, -0.84793323, 0.22920884, -0.10709673, 0.50827783, 3.2058616, -1.6845479, 0.3304151, -1.872673, -1.4113212, 14.410935, -1.1831524, 0.043692768, -1.6258785, 0.707064, -1.4415138, 1.3994735, -0.84765387, -3.4562504, -0.43836358, 3.0601125, -15.989511, -0.2023204, -13.887702, -0.24335642, -1.0138812, -0.45196873, -2.917846, -0.020236399, 0.9513217, -1.384086, 0.71631265, -0.2901959, -0.98531306, -2.067486, -1.6391698, -6.8473215, -0.66620314, 0.7579703, -1.1092616, 0.5134889, 1.309133, 7.7813964, 1.8065872, -2.538437, 1.1811072, 1.8918363, -0.53731406, 1.0199511, 1.2443119, -1.172291, 0.69908476, 0.11817854, -0.369808}, {-3.1182635, 0.41196418, 0.20878713, 0.4428637, 1.137265, -0.06626596, 5.9939346, 0.88455856, 6.797002, -3.2365544, 10.25025, 0.33722478, -6.5236206, -0.3486661, 0.3174794, -1.943919, -0.088566825, -10.048099, 1.6075605, -0.10378951, 1.0314004, 2.044837, 0.6008619, 1.0563873, 7.883692, -3.192894, -0.012032085, 1.5944703, -1.3694775, -2.8462765, -0.67873675, -0.6605672, -0.9129373, 0.27646175, 8.380037, 0.35877112, -9.64994, -0.8917611, 1.7061799, -5.9588165, 4.510717, -0.43230334, 0.51450676, -0.25164875, 0.03271323, -12.521285, 1.0435885, -0.7005022, -4.6418066, 0.20006347, -0.17933275, 0.60107565, 7.043219, 0.10773388, 0.5192572, -1.5732051, -7.18088, -0.57676584, -0.019271404, 2.175536, -0.32953033, 1.3000083, -0.97100043, -2.5248985, 0.066045776, -0.68929476, -0.4997833, 1.1441553, -0.0046616863, -0.7856841, -0.38980523, 0.12832756, 1.2897329, 1.7506471, -2.666731, -2.026414, 0.018209552, 1.9159707, 0.6428492, 7.87155, -0.9457972, 0.37404394, -3.042079, -0.15342611, 2.1869557, -0.15189555, 0.5851744, 0.9625198, 0.0018942689, -1.6185968, 0.24747685, 1.3478087, -3.3806732, 1.4729786, -2.729598, 16.457771, 0.26847112, 1.0164491, -0.5896795, -0.06390934, -1.1260455, -0.79269105, -0.9572643, 1.1019228, 0.018016752, -0.10310563, -0.36991757, 0.85795534, 1.0233475, 2.0517862, -1.5935986, 0.9215268, -0.21631455, -0.9174153, -0.039231136, 0.40060362, 5.737883, -0.36170545, -0.88202, 4.399258, -2.2638023, 1.8851526, 1.7757734, 3.17921, -0.53463876, -0.8935724, 1.360708, -0.6663121}, {-2.199238, 0.33992162, -0.99871016, -0.67774034, -0.18990533, -0.38385263, 4.796882, -0.115025826, -1.7342501, 2.040161, 3.1127224, -0.6918908, -6.080253, -0.07163386, -0.5171743, -7.289002, 0.6032928, -1.3558503, 1.6135563, 0.44394594, 1.8892283, -0.596667, 1.7251512, -1.9993497, 1.3652818, -2.516684, 0.9503888, 0.11922611, 0.30369475, -0.50344074, -0.39743105, 0.7704938, -0.037700012, -0.07360793, 3.1073046, -0.6052141, 8.679171, -0.9773463, -2.8995657, -0.41390133, -0.6329237, -0.9939858, -0.879614, 0.33824205, -1.0973305, -15.216423, 0.67688596, -0.8912006, -0.17250364, -1.531952, 1.1265074, -1.1194929, -4.425296, -0.962028, -1.5941042, -2.9411614, -11.875855, 0.592819, -1.0057602, -0.85653496, -1.7184043, -1.5364696, 1.1651503, -0.50288516, 2.641329, 0.8482344, -0.2177918, 0.29148355, 0.558742, 0.18265428, -0.57183164, -1.2781239, 0.82981896, 1.5034869, 2.4587677, 0.65992725, 0.055494785, 0.109796524, 0.9787338, 11.442826, -0.89166814, 2.0171404, 1.9615446, -0.64726484, -9.863468, 0.58632505, -0.2992456, 0.12700896, 1.4701015, 1.1460166, 0.85517603, 0.25023273, -6.3776555, 0.066949144, 1.881639, -15.531243, -0.8917479, 12.48059, -0.67463934, -0.7907108, -2.051439, 1.6845509, 0.47601974, -0.87712, -1.1843096, -0.35539466, 2.0770266, 0.5502185, -0.9902109, 0.18666291, 0.7573463, -1.5846459, -0.87542576, 1.4096022, -2.202237, 0.6419878, 1.627293, 2.3124266, 2.121768, 5.3759804, -0.8278069, 0.039872043, 1.4161015, -2.4577506, 1.3385711, 1.5513073, -0.46780312, -1.1064999}, {5.7078366, 0.18873443, 0.65820044, 0.22785471, -0.30820817, 1.8037395, 3.419543, -0.79572225, 5.8390107, -0.6991357, -6.143267, -0.064706616, 0.84250045, 0.085465595, 1.132954, 10.370107, -0.9047458, 7.7759886, 2.9837728, -2.7186503, -1.8073702, -0.6930358, 0.9313121, 0.3003097, -6.087474, -3.123559, -1.2344884, -0.1978999, -0.32250077, 0.005297097, 0.20377134, -0.021997647, -0.5245484, 0.9127244, -1.4258155, -0.04885384, -0.44513282, 2.2084212, 0.08597314, -3.2503848, 5.327694, 0.21696456, -0.66519296, 1.2514206, -1.5886674, -10.56986, 0.113946654, -1.000624, 0.3331068, -0.5562713, 0.38758174, -2.297384, -1.0563439, 1.1613489, -0.1306168, 0.066514395, -4.2297015, 0.4965452, 0.057266783, -3.4289367, -0.85061634, -1.229934, -1.0345947, 1.6280884, -1.4031191, -1.735856, 0.7295721, 1.8161136, -0.25283578, 1.1976727, 0.2822306, -0.9642657, -0.61646575, -1.1591244, 1.2895385, -2.502213, -0.25431678, 1.4470761, -0.7771883, 11.058077, 0.15336749, 2.0338547, -0.05101643, 1.5952188, -4.409301, 0.27454388, 0.15399905, 1.4889231, -1.555205, -0.40280724, 0.615051, 0.7291417, -6.1400805, -1.4971429, -0.79062176, 8.959058, -0.25115567, 1.8039502, 0.7452389, 1.1115307, -0.51584125, 0.22089633, 0.32309905, -0.53248394, -0.219313, -0.07581592, 0.31894302, 0.40296608, 1.0515603, -1.8193941, 6.8553114, 0.17799406, 0.60514027, -0.12863004, -0.6151161, 0.5144923, -7.2903123, -0.16295221, 2.9194565, 5.164473, 1.2488171, -0.7587621, -3.3023584, -3.2141364, -0.6002268, -1.672411, 1.8708065, -2.2426343}, {-9.004806, 0.74834925, 0.4563425, -0.9073991, -1.0947978, -1.0770745, 2.3658884, -1.0122185, -3.9338708, 1.511494, 1.1429847, -0.4542453, 6.5392075, 0.016047457, 1.3453716, -9.737375, 0.18408372, 8.394464, -0.1340465, 1.6692055, 1.0699623, -1.2858018, 0.74832004, -1.2401736, -5.4772553, -3.1725616, 1.606207, -0.3201709, 0.08120492, 1.0231636, -0.9369193, 2.2362514, 1.9166366, -1.1171806, -3.260598, 0.39068758, -5.6847696, -0.11049225, -0.10968443, 0.6694388, -3.7724514, 0.33681935, 0.8778517, 0.32050395, 3.75659, 3.756923, -0.50636554, -1.1326848, -0.97080564, -0.40150014, -0.10602226, 0.63479626, -0.45651388, -0.24455455, 0.20838276, -2.3181527, -0.37527964, -3.382595, 0.96148324, 2.508781, 0.17982179, -0.27366886, 0.06630719, 0.6039138, -1.133555, -0.024592282, -0.5526536, -1.0951695, 0.5312733, 1.0693241, -0.6477233, -0.93823284, -0.46223322, -0.21626051, -0.47562027, 0.4452221, -0.12935348, -0.09184408, -0.55724895, 4.980188, 0.036615577, -2.0516567, 1.697735, 0.078848414, 3.0777516, -0.6537381, -0.9719936, 0.9216656, 0.9338074, -0.28599167, -1.1528611, 0.16557533, -6.385455, -0.82913154, 0.7555649, -3.394523, -0.59018517, -6.0891767, -0.30484423, 0.61382747, -0.8581256, -0.31139907, 0.4753095, 0.6379245, 1.4858125, -0.8477914, -0.041024648, -0.5502859, -0.06676822, 0.98039156, 9.169198, -0.73212904, -0.8069669, 1.1803119, -0.3858417, 0.153738, -11.048842, 0.74945956, -0.080991484, 3.7829738, 0.4391166, 1.7755134, -0.9247175, -1.5616258, 0.03294981, 1.6964836, -0.4828371, 1.145086}, {17.434599, -0.11193263, 0.43569493, -1.0768052, 0.26514527, 0.9265809, 1.4907997, -0.095620275, 10.0108385, 0.63000137, 2.487052, -0.034384757, 7.591914, -0.19304036, 1.3923554, 7.913167, -0.16951247, -4.8036103, 3.316515, 0.5489614, -1.4984637, 0.83064246, 0.7353516, -0.07762869, 4.76893, -3.45673, 0.6163822, -0.63697904, 0.5823793, -2.7122958, -1.3117962, -1.1162406, -1.605428, 1.4937551, -6.697996, -0.9515446, 6.8432026, -0.26140895, 1.2516237, 1.2038307, 14.126246, -0.81056386, -1.1357826, 0.35569116, 0.56201345, 7.164229, -1.2900356, 0.21261083, -2.2391639, -0.032700446, -0.04946919, -0.15050434, -2.1893022, 0.60614425, -0.11308087, 0.96283776, 0.90252477, 3.8975644, 0.87741995, -0.9337178, 1.6943629, 1.3687683, -0.4403239, -0.77047306, -0.32250282, 0.8251396, 0.61884904, 1.5670984, -0.6703539, 0.0747446, -0.12728803, 0.70019233, -0.5800152, 1.9346106, -0.41487813, -0.8170076, 0.5874036, 0.79799813, 0.6861209, 2.3021479, -0.59995174, 0.027945086, -0.49461374, -0.06413535, 6.1185184, 0.1323853, -1.3258904, 0.91995865, -0.7565363, 1.3495502, 1.4627116, 0.54250073, -7.3703184, -0.23536065, -1.5705931, -1.0010284, -0.21032566, -2.0665033, -1.2289236, -0.7486058, 3.1656744, -0.16889624, 0.18777502, 0.7465597, 1.9953668, -0.39846584, -0.8895331, 1.2970505, 1.6076499, 0.34266344, 11.465581, 0.6739828, -0.9968859, 0.31576496, 0.44421288, 1.7816484, -11.166699, 1.2729074, -1.4631748, 2.5098987, -2.7969952, 1.0126475, 0.3027475, -1.668007, 0.08499819, -0.7904534, 0.2461138, -0.24931763}, {-28.310019, 2.303664, -0.41512427, -0.712976, -1.9368463, 0.007123338, 0.94123554, 2.0292773, -12.575033, -0.7570934, 1.9708861, 3.159499, 0.7260544, -0.6399124, 3.443364, 0.32700062, -1.6050473, -1.3578807, 1.6680864, -0.77940375, 4.009234, 1.2552893, 0.6590999, 0.013505476, 4.578938, -2.2442024, -1.7888254, 0.17883764, -1.5880826, -0.38798416, -1.2334572, 2.988137, 0.12781, -3.6479712, -0.9539838, -0.060376685, 0.40372738, -2.805191, -0.25661355, -4.986336, -22.974049, 3.920314, 0.98809075, 1.5924704, 2.666043, 2.4572465, 4.832821, 5.312403, 0.07707111, 1.8604114, -2.1488733, 3.9288895, 1.5174762, 2.6907172, -0.85210556, -1.0347873, 3.5479248, 1.7246428, 3.3331885, 0.5848722, 0.20344354, -1.0866178, -1.2447662, -1.1825571, -1.8455821, -0.5256447, -1.2569554, -0.62798023, -1.619966, 0.83918136, 4.571298, 2.3750107, 5.2212005, 2.7352571, 1.7596925, 1.0953972, -0.7442038, -2.9478166, 2.2208297, 1.9728656, 0.18410756, 2.2177408, 0.820815, 0.9111873, 1.3344398, -0.24088553, 2.0984042, -0.6607867, 4.671718, 1.4989084, 1.7600527, 1.4397761, -0.6960951, 0.46193194, -0.8801855, 1.9709669, 2.692443, 1.2060852, -1.6048564, 0.9325962, -0.45626804, 1.7615887, 0.6319824, 0.6420712, -5.745734, 0.8019015, 1.3433784, 1.0174675, 0.17382434, 1.1891472, 3.2591486, -0.3485709, 3.6971936, 3.5537984, -2.4236763, -0.48923993, -2.7383468, 3.2263455, -0.7377945, 1.1916163, 0.75491756, 0.42172205, -3.4732804, 0.28193122, -0.45195344, -1.3904742, 3.39374, 1.7112767}, {0.8001357, -0.87542707, 0.2767407, -1.5344468, 0.13038725, -0.32689488, 1.9740567, 2.5185184, 6.766421, 0.84531796, -0.007411627, 0.07017766, 0.5283041, -1.5360138, 2.0326164, 1.3118559, -0.7175742, -0.37795186, 6.4779687, 0.8388561, 0.32426313, 0.7892222, 0.79130745, -1.5884372, 1.3269416, 4.048566, -0.1042268, 0.041393258, -9.272421, 1.4219488, 0.50401396, -0.04272245, 1.6073512, 1.1233699, 0.59252185, -0.70500267, 0.06772114, -0.21371092, 0.11927359, -6.3343344, 9.938361, -1.2959528, 0.121017985, 0.37079334, 1.1021992, 1.2475673, -0.48140514, -0.6494213, 8.196664, -0.83262, -0.8664173, -0.27223825, -0.046833206, 0.564856, 7.4313183, 2.3192203, 1.5729016, 0.22222607, 0.08075015, 1.199543, -0.2314092, -0.21586369, -0.011962362, -0.20919526, -24.002132, -1.6027982, -0.3553006, 1.4372696, 0.9420473, -0.47638747, -1.0402467, -0.72667015, -5.2354283, 8.045798, 1.2517837, 0.6260217, -0.45384347, -0.20829742, -0.74839824, 2.27959, 1.1158167, 0.048212264, 5.712169, 0.10508791, 0.16253826, -0.5139704, -0.74612814, -0.11809053, -0.95666206, -0.5647131, 0.2035253, 1.1918488, 1.7063582, -0.062339697, 1.9194056, 1.4902805, -1.3885616, 0.61875975, -0.4907854, -0.6598111, 14.043794, 0.13299401, 1.4163711, 0.4224, -2.5942066, 1.2167875, -0.3408032, 2.5753734, 1.7023399, 1.5318782, 3.521945, 0.3625517, 0.45399743, 2.063779, -0.13392957, 1.1686572, 1.8969312, -0.6072693, 0.7113467, -3.2474632, -0.19564402, 3.0989578, -28.0635, 8.131837, -0.092262335, 0.114434294, 0.5934997, 1.0113313}, {-0.07858019, 0.69428235, 2.9740431, 2.0676906, -0.022113927, 0.40541452, 8.621827, -0.22716285, -10.914212, 3.7728655, 0.89072716, 5.148951, -1.4473853, -13.796235, 0.64788723, -0.8651731, 1.0548002, -0.80003655, 8.669149, -0.533026, 2.29846, -1.1130575, 1.917405, 14.97561, -3.352055, 11.26637, 0.7918696, -0.59820986, 3.6506355, 0.92009944, -2.334583, 0.7923561, 0.29515222, 4.4989276, 0.77698445, -1.4066508, -0.3284849, 0.22648104, -0.58432466, 3.5562632, -5.099941, -3.5784686, 0.28334916, -0.662825, -4.8703747, 1.6029923, -0.91172826, -1.3824124, 5.072059, -1.8636318, 0.1901086, -5.043698, -2.0417485, -0.6604827, -5.4508543, -3.471927, -0.43182877, -1.0722418, -1.3694934, -0.06707761, 2.871046, -0.08904165, 1.0032169, 0.4594432, -12.190385, 1.2335616, 3.4363728, 0.18563288, -1.8040291, 2.7411003, -0.46368083, 3.3285842, -3.7874014, -8.881043, 3.432483, -2.9600408, 1.3330787, -1.5287294, -1.4338416, 0.28137156, 2.7678437, -3.4360802, -2.69293, -0.42200005, 0.36694527, -1.0761731, -0.46923634, 1.0180868, 1.1292964, -3.2639554, -3.4684677, -0.011622061, 0.43837807, -1.3100797, 1.2129579, 0.169786, 0.018177323, -0.9459985, -3.9739516, 3.1781573, 1.0886323, -3.198906, 1.2995803, 2.1703973, -5.2010245, 2.9476135, -3.1841178, -8.641482, -0.092829406, 5.560323, 8.512789, 0.9833857, -1.0096847, -2.8586307, -4.842048, 6.4124546, 0.7872676, 0.7000477, 0.95895636, -4.2047763, -1.1202302, -3.80687, 5.3678117, 0.9984477, -0.5885537, 0.29522163, 0.3007106, -2.1220164}, {0.60730004, -3.4403892, -3.2992122, 1.3896836, 1.7950617, 0.0107395835, 3.9450152, -3.0647805, -0.21450518, -2.5807939, 0.8119206, -8.565785, 2.3867722, -4.28943, -3.2008367, 0.74128, 1.8573227, -1.9703621, 0.5133138, 3.11619, -1.3001688, 1.2329111, -3.476088, -6.3276434, -4.0417614, 2.4570415, -1.2094294, 0.11136393, 11.79056, -1.0315787, -5.351908, -1.2702909, 1.6017116, 1.5037972, 2.5123, -1.5712951, -0.20604356, 1.3479908, -1.4672288, 3.7342255, -2.8027735, 1.0315034, 2.7897036, 3.2127318, -0.5780892, -2.8463275, 0.45987615, 3.0786483, -3.0529885, -2.467386, -1.3037726, 1.6625606, 2.8506966, 0.4540385, 3.6163545, 1.7837119, -5.126886, -1.0613959, -2.9842246, -5.9433255, 7.744931, -1.7706696, -0.43224016, -0.9639035, 5.07031, 1.4529678, -1.4041909, 0.048877567, 3.461934, -3.6028185, 0.338748, -3.7338629, -0.723547, 6.0260024, 1.3914986, -8.210396, -2.1669145, 0.7481546, -0.35423243, -3.276017, 0.94060075, -0.52250904, -7.9381413, -3.6794791, 2.4626713, 1.5367059, 3.2968075, 0.34528896, -1.8383431, -3.3442893, -3.558996, 0.86294514, 0.19875504, -1.8668125, -2.7774398, 0.93364435, -1.58437, 1.5201895, 0.8337671, 1.7545199, -1.6002678, 6.3881726, 1.2066597, 0.4161467, -3.8760388, 0.68806905, 0.06719905, 0.023938322, 6.8052154, -10.341509, 6.377027, -4.08895, 0.6185525, 0.68414074, -2.5262954, 2.1105995, 0.10225563, 1.5172474, 0.08967024, -3.2713099, -0.40510222, 3.5289798, -5.090631, -5.0473585, 0.5663946, -0.7322755, -2.9588282, -2.0376341}, {5.299548, -1.616508, 3.6229131, 2.4388666, 1.551619, -1.1944529, 3.7231066, -0.89415205, 1.2425472, -1.0842485, -0.66476244, 3.4768343, 0.5922622, -2.7709775, -0.5965828, -0.056812197, -2.105992, 1.0986845, 1.9651239, -3.785287, 0.46578783, 1.1991569, 2.3147628, -0.8224827, 0.5529772, 0.89608526, -0.9576409, 2.2302866, -2.6716857, 0.2580929, -0.53387856, -0.9637238, -3.094644, 0.023773484, 1.0678744, -1.5004548, 0.39766112, 0.16004749, 2.0435069, 4.0035563, 6.052254, 0.23557134, -3.327721, 3.782419, 0.49268788, -0.78591704, 1.0282427, 2.0878916, -2.9995673, 2.029848, 1.8779128, -1.3429921, 1.2682699, 0.45669234, -3.5376081, 0.05601965, -1.0076412, 0.8850222, 2.7836154, -1.3652409, 4.173602, -0.4420622, -0.9572022, -2.52811, 2.0284998, -0.16889533, -0.06345741, 0.09208362, -2.533798, -1.9010714, 1.0868075, 3.4664614, 1.0660844, -3.1478298, -1.1274872, 0.75364184, -0.43482068, -2.1780646, 2.9127154, -4.0558524, -1.1188594, -3.105705, -4.1972904, -1.3123875, -0.31552914, -2.71426, 2.0441597, -2.0061762, 2.3314166, -3.685486, -2.6093035, 0.62405086, 1.077772, -0.9235862, 2.564345, -0.660458, 2.2812924, 1.5273303, 0.36678538, -1.4796773, 0.5097347, 1.3425934, -2.8138046, -3.0539892, -1.7677648, 3.1954794, -3.7045667, 11.848053, -0.034136895, 7.3801465, 5.058605, 2.192344, 2.3477817, 0.5636715, -5.2466836, 2.9715383, 4.0747943, -0.50497276, -1.0355332, -3.6871548, 0.4816887, 2.4148276, 0.6824161, -5.3856244, -1.9284388, 1.1442118, 1.8989861, 0.7213958}, {-4.469152, -0.36468273, -3.4245675, 0.83904517, -1.445277, -0.12796333, 3.7396655, -1.1385349, 2.2727365, 0.21646817, -2.4340045, -4.677912, 3.5202973, 4.995133, -2.8181374, 0.18085034, 3.5845492, 1.2831129, -0.9056751, 6.3125615, -0.9538102, -2.1468244, -2.473097, 2.1311033, 3.1535745, -1.8166533, 2.260377, -5.5907273, 1.4450046, 0.40836903, 0.4479925, 2.6644437, 1.2990516, -2.5991452, 2.0346012, 4.3167257, 0.6615141, -1.3555515, 0.8833737, 2.723749, -4.3496575, 1.6675849, -5.4415846, 3.5521798, 4.603059, -1.4231391, -0.76022017, -1.4509706, 1.6296619, 3.6734736, -1.2317804, 3.7445035, -2.4223907, -2.5743146, 0.14674127, -1.5368632, 2.476414, -2.2189908, -0.14913765, 8.260282, -0.56494516, 2.1043608, -0.2681883, -2.6846948, 4.0994577, -1.1431503, 1.3691026, -0.9751824, 4.447274, -1.7039319, 2.1521754, -1.5199068, -0.8443324, -0.11244371, -1.6870551, 2.841607, -0.03553841, 0.14288409, -1.0071253, -2.3630354, 0.8482119, -0.060161524, -3.742873, 3.7254777, -2.7845292, 1.9534751, -1.6017543, 0.8264942, -1.8902149, -2.769198, 3.006497, 2.045492, 0.91978246, 0.43260226, -1.7908179, 2.9315932, -5.5198736, -0.9061629, 2.1481283, -3.9673653, 1.8816011, -10.305717, 1.3264493, -3.2769396, -2.9974363, 3.4914567, -3.6929762, -0.2714585, 1.7432545, -4.9660454, 6.302641, 2.1454754, 0.6275648, -0.67676306, -5.2955995, 1.4254417, 4.0110765, -1.169078, 1.5084312, -3.7016485, 1.0642974, 0.20888072, -2.4721043, -3.233698, 0.36121544, -1.3572918, -0.20723297, -0.5082453}, {11.569449, 3.446068, 2.4567606, -1.7802117, -2.861595, 1.744317, 2.4256077, -1.1102567, 5.358943, -0.6611883, -0.4770715, -0.98929286, 2.798473, 2.4830718, 1.7194774, 0.9313303, -0.62134963, 0.09648449, -0.46407408, -5.3327518, 0.028229801, 1.33737, 1.2911848, -0.8086683, 2.1208694, -0.70022666, -3.8253903, 1.856086, -0.11446614, 0.00998057, -3.3764946, 2.1754699, 2.7233732, -0.69291574, 0.613292, -1.0520527, -0.48105958, -1.1927329, -3.7485158, 4.729511, 0.5777291, -0.041989207, 0.24983817, -4.8432884, 3.3628185, -0.7045542, 0.9205646, 1.7793834, -0.7672827, 1.022714, 1.4493777, 2.0937145, 7.038629, 3.625395, -0.94737065, -0.28072178, 1.609125, 2.2023478, -0.62752056, 1.8980157, -2.5732334, 0.27916068, -0.96780926, 0.98604876, 4.7394104, -1.4458792, -1.4318969, -1.2258139, -3.776257, 0.12427342, 2.1188293, 2.7903438, 1.2351974, -0.16653039, 2.4118094, 1.9574952, 0.29738805, -2.0375316, -3.5285826, -3.2890847, -1.1255187, -0.6401702, 0.9787539, 2.0188186, -2.1849532, -2.053279, -2.8405125, 0.7283394, 1.8435676, 0.6977777, -1.9315683, 3.3474815, 0.9700628, 1.7703145, 0.3437792, -2.538216, 4.373095, -2.0564568, -4.4582515, -0.8840664, -3.1503224, 7.3794584, -0.3695199, 2.7461705, -1.8003156, 2.955197, -2.8915796, -6.371233, 0.32483977, 1.6497741, 4.6686034, -2.9695575, 0.32271522, 2.4660597, -1.1052648, 3.6705966, 3.958783, -0.64791536, 2.829003, -2.293371, -1.6061445, -1.728062, 1.0432715, -0.018133705, 1.2925271, 0.9774606, 0.8627208, 1.0918204}, {-1.8167766, 2.8757086, -0.7207217, -0.17422509, 0.05055853, 0.64946264, 2.4239447, 1.9645407, 1.7396669, 0.6091853, 0.09287755, -1.8671092, 0.8796439, 4.997344, 1.3137805, -0.7205995, -0.41000876, -1.4484618, -1.7887243, 3.4664454, -0.42189685, -1.182133, -1.3124596, 1.1349427, -1.2496034, -3.078762, 2.8211806, 0.5139958, -1.1044662, -0.8663466, -2.101884, -1.9115709, -5.034028, -2.546992, -2.0028417, 1.7004303, 0.07206607, 3.4937682, 4.5753145, -3.606018, 2.2469635, 0.8939569, 0.9796742, -3.2719796, -0.11263118, -1.6677282, 1.4321563, -1.5225602, -1.4408554, -4.5917797, -0.98304874, 2.0210965, -10.341578, -5.5174475, -0.05232978, 0.85051066, 1.8043569, 1.3612429, 2.0412393, -10.844235, -4.7204547, -2.1322198, -2.58521, 1.2802318, 2.6044822, -0.90076333, -0.09346918, -1.383285, 3.6537437, 1.9557151, 1.3141608, -0.35584328, -0.53253883, -1.168234, 2.1829731, -0.5570449, -0.42354718, 1.2225338, 0.7193405, -1.4475607, -1.4123555, 3.5532467, 0.9786766, 0.16484344, 1.0392743, 2.6393301, -4.1995506, -0.76580745, -0.75245124, -1.6829721, -0.6122882, -0.887028, 0.8944215, 1.6983153, -0.8372536, 3.128935, -2.688123, -0.108473, 3.0205796, 4.8692927, -0.10134319, 1.4886447, -1.1978457, 5.0130415, -3.1848896, 3.6869936, -2.1873713, -2.7553763, -1.0171959, -0.028603613, 1.9244314, 4.459796, -1.192122, 0.106033824, -1.4653426, 1.5845673, 0.9750298, 0.42229703, -1.0235624, -1.8066262, -1.1700126, 0.10828205, -1.7388428, -0.4758013, 0.8968429, 1.0203786, 0.10142153, -0.044835586}, {2.5713024, -1.5578511, 0.49174893, -0.40397093, 2.1529038, -1.3501043, 4.544705, 0.46798486, 2.2755766, -0.058126677, -0.79658794, 0.018227372, -2.978046, 0.6784579, -0.2737926, -0.24475169, 1.800023, -1.39738, -0.43098336, 0.26178682, 0.11614858, 0.9086943, 2.1284761, -0.43723455, -4.954917, -1.5088929, -0.02406261, -0.49161813, -0.26909232, -0.029593468, 0.89417446, -2.373053, 1.351473, -1.6707033, -1.580578, 2.1457202, 1.2368329, -1.0952282, -3.7072499, -2.3733747, -4.233823, 0.33013177, 2.482027, -3.776507, 3.5710082, -3.498184, -4.240683, -0.7422173, 0.15405425, -0.44066718, 3.5275419, 0.86871046, 9.705376, 4.668714, -0.90382546, -1.8620641, -0.5859247, 2.069206, 1.2995983, 0.3550946, -2.926631, -1.0333003, 2.8719869, 2.152637, 2.7954643, 0.99100244, -0.09504754, 0.8278343, -2.831714, 2.7136018, 1.6215736, -1.9921757, 0.059520386, 1.2458315, -1.9469523, -0.6209949, -0.5947845, -4.830477, 1.970551, -2.7478025, 0.046913717, 1.346934, 1.0901049, 3.440662, 1.7182661, 0.7895058, -1.7318877, 1.9058559, 2.0079324, 3.29469, -0.74439377, -4.622187, 1.592996, 2.053393, -1.2357128, -5.038656, 3.5176082, 1.3593961, 2.0052764, 3.140976, -3.005104, -5.1699023, 0.109150775, -1.3896172, -1.0102272, 0.5050324, 0.25581124, 0.9922943, -1.5748429, -0.5820871, 1.0502582, -1.9762952, -0.61284, 0.9057632, -4.055971, 1.4331567, -3.5531838, -1.2268839, -2.5668716, -2.1031368, 1.9010093, -0.10338353, 0.9830558, 2.0692425, -0.49871063, -2.1329262, -0.5480909, 0.55330706}, {3.3528302, 0.33392167, -0.3152892, -2.5496771, 0.8235073, 1.4256964, 6.15008, 1.2089771, 1.0400783, -0.097685374, -1.1027817, -3.0207107, -2.8560393, 0.085848995, 2.1691225, 1.0534412, -0.7482782, 0.51105756, 0.068886146, -5.0369663, -0.54545313, 1.7748259, -0.041244, 0.10588159, -0.95275325, 0.25260657, -5.052259, 1.5038813, 1.0634875, 0.20755972, 2.7111654, 1.6516584, 0.26997843, -1.5793164, -2.3849714, -1.9080833, 0.50333434, -3.2637148, 2.0609176, 2.9761312, -0.76708704, -0.047468398, 3.2102215, -1.1922241, 1.3697484, -1.416382, 4.2048297, 0.9580406, -0.7627674, 2.6752965, -1.2773197, 2.9401011, -7.4330764, -4.049147, 0.90603733, -0.078270346, -0.5027833, -1.5213681, -0.5741325, 6.6796937, -1.7440169, 2.638931, -5.2316494, -1.5038337, -0.06959183, 2.813677, 0.98675334, 3.2350335, 3.2502382, 4.254508, 2.2971516, 1.2356995, -0.058949135, -1.1015652, 4.9830117, -2.3929567, -2.617408, -0.95785415, -0.40347797, -2.6427288, 0.05589932, 3.3024237, 3.318238, 2.215859, -0.3476874, -1.5635568, -0.9875876, 1.7113862, -3.2070997, 0.37477294, -0.5632567, -1.6898894, 1.5588722, -0.37249863, 1.8336996, 5.247003, -1.4058291, -0.14796937, -3.760314, -2.10117, -0.27802593, 1.9941701, 1.3926241, -3.8244133, 0.839281, 0.81151235, 1.7878814, -0.42262653, 3.9097662, 1.8619895, -2.1898053, 0.3042493, -3.352052, 0.4709394, -3.932181, 0.3545918, -5.497646, 1.4879087, 0.24280986, -4.7178993, 2.5748498, 3.2181234, 1.0707968, 2.5874643, -2.1392896, 3.8563404, -1.5766999, 0.8824707}, {5.34114, 2.3039694, -2.1992447, -1.970589, -0.8182495, 2.0106888, 7.757983, -5.6063757, -0.8139584, 0.46407267, 0.17955193, 0.42844415, -1.8743391, 0.40640616, 0.30820674, -1.0886223, -0.37338606, 0.8008252, -0.7295404, 6.2686157, 0.9392236, 3.026023, -0.16306657, 0.37142515, 3.2479184, -1.1232932, 7.8678374, -1.2547598, -0.9439488, -1.045471, 5.556115, 0.49828675, -2.8156655, -0.35638642, -2.5638351, -2.1686087, -2.2669857, 1.2383574, -1.6140511, -2.75062, 1.2972858, 0.03085866, -4.064912, -1.8195155, 2.0841606, 1.9297838, -1.7201015, -1.03588, 1.7463579, 0.7605743, -1.0557388, -1.0356395, 1.1389083, 3.6842005, 1.1686101, 0.48687494, -0.22918835, 2.428907, 2.3994615, -0.22932312, 1.2863231, 2.4275718, 3.9661217, -0.68816924, 0.46392107, 4.3210516, -0.06904943, 1.9345846, -2.4376702, 3.1217177, 1.4450788, -5.396014, 0.5099018, 0.8677316, -4.3214016, -4.2919707, -1.8905164, 1.1007822, -1.6318089, 1.9731811, 0.35507017, -1.3249502, 2.220928, -3.451711, -3.071609, 1.4107144, 0.044111278, -0.041993547, 4.1113944, 0.520109, -3.0139484, 0.02663329, 1.9337306, -1.2384951, -0.6952922, -2.709822, 0.15244456, -3.2416236, 3.0843287, -5.4067154, -3.9903555, 1.2854239, 0.12711446, 1.3951132, -1.3172456, 1.1885827, 2.8605886, 0.10405778, -1.8466845, -0.695145, -4.8506393, 1.2613031, -1.34523, 1.1943686, -5.39304, -1.2739797, -6.0158205, 1.555598, 4.7748957, -2.5678272, -1.0168575, 0.23009032, 2.0564666, 1.5242847, 1.7307312, -4.384631, 0.07337332, -1.6108233}, {-3.5223076, -0.87507725, 2.0522554, -1.9396679, -0.15817578, -3.536509, 5.432494, 0.70697075, -4.5779514, -0.45582584, -0.37734833, -2.787881, -3.034864, 3.3576066, 2.749959, 1.478352, 1.3978757, 0.39437088, 0.46649638, -7.0883946, -2.8650784, 1.3876113, 1.8823113, -0.5950579, 3.8334796, -0.041667607, -5.254345, 2.2973943, 1.7383952, 0.6992796, -1.4933221, 0.029778734, 3.4039779, 0.56927836, -1.6213415, 3.3808856, 1.3672913, 1.9087535, -0.83694804, -0.028345915, -1.1175019, -0.7355636, -1.0461372, 0.20684269, -0.8832248, 2.9967897, -2.9325764, -0.0175351, -1.225357, 0.35447046, -0.84735024, 3.5404005, 2.6437743, -2.6028295, 0.45726022, -0.5867775, -0.7379408, -0.6732304, 1.7765297, -3.0247023, 1.596167, -2.074619, -1.2410789, -1.8504608, -0.77086526, 3.3619635, -0.10155731, 0.5720627, 1.9029336, 2.399141, 0.5846391, 3.7973983, -0.05518078, -0.42267945, 3.9661636, 2.0799577, -3.6719995, -1.2342364, -1.9487503, 3.6124144, -0.7784459, -1.0603231, 0.27046403, -3.4747317, -1.9854752, -1.5054102, 2.8932314, -1.1914026, -4.2860045, -1.0748981, 0.9399351, 2.8830993, 0.5468073, -1.8141729, 0.48092973, 2.1854448, 1.955806, -0.67677534, -0.87524116, -1.9133741, -0.9253204, -4.695, -1.9620514, 3.3667877, 1.3121746, 0.67185485, 2.4282691, -0.54854846, -0.64904755, 2.8012075, -7.3511004, -2.3495774, 1.2731853, -0.99738437, -6.090863, -1.8848016, -3.4676967, 1.6473597, 2.6971526, -3.8439388, -0.42002186, -3.6015465, 1.2748785, 0.7778257, -2.1554863, 5.703922, -0.9017565, 0.9325187}, {14.059112, -0.42013434, -1.3526043, -0.25015092, -0.7550714, 0.012047964, 1.0538023, 0.0851918, 7.430314, 0.75289154, 0.042435348, 0.66305465, -0.48743036, 2.1746907, 0.9079869, -1.0325762, -0.4456424, 0.6702752, -0.22514659, 4.4953766, 3.2744436, 3.2139425, 0.10913805, 0.79099977, -0.38623402, -0.54161835, 2.1558366, -1.1921997, -0.1978219, -0.4438239, -0.08669498, 0.12264545, -0.79953474, -1.247502, -0.022578288, -0.30436882, 0.19241174, -1.863195, 1.6986748, 1.0911118, 5.2463803, 0.5818508, 2.650522, -0.25188127, 1.9825077, 2.98317, 3.3722234, 0.44802487, 0.50947857, -1.068525, -2.934627, -1.4538368, -2.3591492, 1.5634483, -0.50954324, -0.008856921, -0.4955395, 1.116358, 0.64785653, 2.181497, 1.7556171, -2.3795533, -0.9393706, -1.7142458, 0.32409796, 0.27689844, 0.025194056, -0.5494006, 0.31820723, 2.8205552, 1.882633, -2.2859316, 0.46874586, -0.39465067, -1.4597671, 0.10213435, -0.6102127, -2.5711584, 1.4016072, 4.52164, 0.49072802, -1.2004832, -0.31569657, -0.712392, 1.1247398, 0.3204916, 2.9427714, 0.7787916, 2.076388, 1.6071677, 1.4660412, -1.367715, 0.80183107, -1.2779377, -0.26623014, 0.71383303, -1.9543688, 1.9586648, -1.5247556, 3.9513004, 0.73414254, 2.0472846, 1.1686152, 0.7189908, -0.6519173, 1.6256914, 1.5522348, -0.41345152, 0.3239227, -0.84936816, -4.699998, -0.0701335, 3.7019572, 0.0046880674, -1.915624, -1.5060923, -1.3875744, 0.31089753, -0.61679983, -1.2263246, 0.77565473, -2.181181, 1.3323103, -1.321449, -1.7184775, -2.9769444, 3.594425, -1.0931716}, {4.477485, -2.2699513, 3.4094784, -2.368303, 0.9274822, 2.886609, -2.34749, 0.59271, -3.528902, -0.563061, -0.35522732, 1.2191068, -1.3441325, 2.703813, 5.0979986, 0.7221494, 2.1737475, -1.3221182, -1.3678119, -1.7846586, 1.941287, -0.24125426, -1.9325773, -1.1544976, -3.0157354, -2.1141565, -1.9547094, 0.17701414, -0.4777267, 0.4682491, -4.490828, 1.6499379, 1.2575727, -1.4806609, -1.1591212, -4.2593493, -0.88013756, 1.4395729, -0.42088145, 0.48349956, -1.536696, 0.73433375, 2.1965926, -0.20930889, 1.7849286, 1.4939268, -2.0607476, -0.68247986, -0.958532, -1.187026, -4.4586043, 3.117731, 2.0664287, -1.5408921, 0.86171293, 0.6669316, 1.2856143, -0.004158868, -1.2708045, -0.5427938, 0.95415, 1.0964655, 0.034964375, 1.4168288, -0.5986034, -6.5428824, 0.24750866, -1.3685083, 0.10119917, -2.1789844, 2.271391, 4.689328, 0.24350616, -0.22843823, 1.0437301, -0.27878746, -3.2318072, 3.558154, -0.45756415, 3.8979344, -1.4895403, -1.0242438, -0.50418913, 1.8998773, -0.32256022, -0.45106944, 4.227892, -0.58381253, -1.3149017, -1.8800917, 0.8660482, -1.0105828, -1.165512, -1.8660291, -0.132716, -0.9598985, 3.342065, -0.5310336, 1.9749156, 2.0297356, 0.6726668, -0.8488509, -1.852313, -4.367275, -0.19863437, -1.0857596, -0.020770228, 1.1068972, -2.0096045, 0.7245001, -4.727452, 0.25086755, -0.21135972, 0.2949202, -2.298877, -2.2817929, 3.4607422, 0.4223997, -4.488568, -2.1971378, 1.3197781, -0.26266062, 1.7834498, 0.1604357, 5.637652, 1.5500917, 4.3876467, 0.657796} };
	// ====================================================================================================================== //
	float HiddenLayer_1_bias[HIDDEN_NODES_SIZE_1] = { 51.21114, -6.798499, 8.99421, -2.3494444, 3.3980334, -3.972202, -4.466837, -1.4760324, 12.6910305, -2.1636775, 1.6085732, -7.5977273, -0.8904091, -4.29904, -2.1739752, -9.691596, 4.0033507, -15.535296, 2.3934155, -1.6701069, -11.13656, -4.7473764, 0.4510324, -2.9758735, -0.276485, -3.5974033, 3.0120478, -4.970829, 1.8311197, -0.14029047, -1.838519, -7.705591, -4.978554, 1.8535298, -5.7878046, -2.5758867, -7.413319, 4.6639967, -1.2985225, 15.273046, 45.39092, -9.896182, -1.225638, -7.2043185, -4.063464, -4.931395, -8.73253, -11.05864, -6.0955715, -3.2837732, 2.7218122, -7.0955844, -1.715885, -8.677321, 6.2419214, -0.7098956, -3.8862104, -0.7302732, -4.82208, -2.3969507, -3.2399802, 0.8544809, -0.12826838, -1.124946, 0.96266294, -2.9710922, 8.439478, 5.7802334, 2.3469198, -3.061011, -10.665939, -2.189636, -12.053293, -6.8710966, -7.642572, -2.8668547, 4.618905, 1.4767355, -3.9053438, -1.195796, -3.313733, -10.562783, -4.3153615, -3.4117246, -6.6851516, -8.464047, -6.436504, 0.25210184, -7.8596663, -5.703281, -3.0959184, -4.8909755, -7.579785, -1.886911, 4.105034, 1.3379529, -7.653519, -3.6740618, -2.8679192, -0.49717999, -5.3717184, -5.302369, -0.10787828, 0.8592972, 14.304564, -6.8058224, -6.3168263, -5.410647, -4.1228113, -4.98301, 5.9735584, -2.6428313, -4.7345443, -11.134155, 2.7145996, -0.99150634, -7.1677337, -8.919775, 0.8432494, -3.3663256, -4.651428, -3.5245078, 5.01009, -2.3527184, -1.872073, 6.4042354, -0.068133146, -12.216375 };
	// ====================================================================================================================== //
	// ====================================================================================================================== //
	// dense_1 //
	// ====================================================================================================================== //
	float HiddenLayer_2_weights[HIDDEN_NODES_SIZE_1][HIDDEN_NODES_SIZE_2] = { {0.14677739, -11.457946, 0.8577322, -3.6012511, -1.9828395, -5.478441, -1.3571782, 50.281372, -4.112293, -0.5111724, -1.8716987, -2.1134088, 13.078688, -5.901504, 5.55482, -0.79236233, 2.5650656, -7.6334443, -0.76071924, -2.9934583, -1.521679, -3.8087256, -4.6854277, -1.4326415, 0.3139657, -3.0243654, -6.9220743, -2.3758938, -1.8464628, -2.6699204, -3.4418724, -1.4545033, 21.666023, -5.174199, -1.9716265, -2.8757067, 0.38388976, -1.4181639, -0.38647527, -2.8339329, -1.3963774, -3.1585915, -2.591574, -1.9381931, -0.4925038, -0.60040665, -2.4004805, -1.0633223, -2.3867192, -2.13364, -2.3049936, -2.02729, -9.406222, -7.852763, -3.5140438, -1.262559, -3.3021934, -5.8411784, -3.033627, -1.2292184, -0.70118046, -5.544528, -1.3941934, 0.8151569}, {5.914998, 19.810265, -5.899078, -7.3666434, -4.068842, 4.518091, 16.134018, -6.686317, 2.1481457, -14.386569, -5.460518, -11.825873, 2.9629543, 14.679178, 11.521995, 2.318566, -11.422562, -10.146034, 30.260794, 8.523503, 0.27618983, -7.991302, -2.285106, -1.4428885, -1.9711413, -60.92857, 18.802845, -1.1569701, 7.4732256, -2.4323554, -1.622433, -3.061228, 3.911303, 6.0775824, -6.1091676, 14.026495, -11.756819, -6.5465603, 2.2732317, -20.679268, -18.206366, -11.798157, -23.0003, -0.9234437, 1.1479657, -18.52503, -6.07928, 10.569374, 6.414834, -14.65279, 1.739533, 1.4427214, 22.23006, 12.404695, 24.61602, 4.8341117, -0.7281012, 14.988351, 2.6618235, -5.758815, -9.881506, 7.048086, 5.054065, 6.4563317}, {-12.279237, 0.78392637, 0.08506554, -8.2074, -5.394911, -1.8571533, 8.420255, 33.65039, -14.243777, 1.6633607, -6.9193797, -8.548476, 8.870601, 0.50740546, 12.754337, -5.9041266, -1.569618, -16.271963, 11.233985, 2.7931755, 4.219704, 2.6778693, -2.1201913, -9.388938, 1.1937336, -9.810655, -5.921781, 6.8592944, 6.667292, -1.6660267, -0.036786225, -1.3151424, 12.521025, 3.0463276, -2.061069, 5.1050963, 8.814385, 1.262969, -3.8454924, 6.5885158, -3.2375445, 1.9662918, -3.0818152, 7.503166, 7.3670235, 0.119910136, 7.1445656, 6.154156, -0.6908666, -0.3464922, 3.5692723, -0.039851442, -5.8651934, 3.9085698, 0.101232596, -8.9154005, -0.5663585, -4.0060477, 1.9962951, -2.3076038, -2.5009596, -3.5749962, -4.8193073, 6.284795}, {-0.14814873, 5.9605618, -6.709887, -8.522933, 1.0968498, 1.0720437, 10.829131, 2.008795, -35.84488, -2.895648, 3.489365, 6.898175, -3.8887403, 4.496321, -2.937416, 4.3265586, -6.323886, 2.8924687, 4.8767643, 11.553128, -10.959812, 10.227451, -0.025994917, -16.557476, -5.008253, -10.710232, 7.4407644, 5.407727, 11.794584, 3.3899693, 0.5952403, -1.0393302, -2.0345721, 4.985039, 12.33611, -9.314873, -5.8072557, -1.8542776, 3.8166697, 6.303126, 3.1139224, -18.675013, -4.5887733, -4.063875, 9.857675, -9.860707, -18.511616, 2.2362733, 1.6199125, -9.289738, 12.258027, -1.8106799, 22.65441, 0.28486294, 27.499199, 1.5586338, -8.432475, 12.535469, -15.699613, -1.0361986, -9.285526, 3.4037733, 3.1760926, -0.22286212}, {4.2129784, 5.701517, -8.921199, 1.3574237, -4.381111, -1.6666365, 6.7533894, 6.167251, 2.151224, 2.6327512, -5.95947, 10.229774, 2.2789733, 3.0781207, 2.3531673, -4.8646846, -3.9637723, -2.4376767, 7.3827243, 10.993508, 4.556291, -3.7484121, -5.726907, 2.0349586, 5.446492, -1.7971259, 7.9625654, 9.315668, 4.4437375, -0.71529675, 7.1685057, 4.202131, -3.401915, -2.8515594, 12.782751, 22.202793, -2.9140162, -16.414064, 2.2003686, -1.925168, -9.612683, -2.1119666, 26.539268, -5.8126354, -5.418782, -24.64138, 11.033004, -2.9718943, -18.688665, -5.0305576, 7.337937, -0.06301721, 27.478205, 15.1726055, 4.96644, 3.131156, -7.520182, -5.2235813, 1.9364296, -1.5197722, -9.398777, -2.4713852, -0.15056653, 3.086359}, {-10.771208, 17.84612, 8.284632, 1.5006207, 0.12373507, 4.475999, 7.331485, 19.283173, -3.0721812, -0.59056693, 2.242776, -11.147555, 4.6384277, 0.40063724, 0.10901483, -3.2951164, 2.1100905, -7.467169, 9.735164, 10.620372, -1.1030314, 4.444649, 4.571895, 10.759167, 5.2523313, 7.8106184, 1.6950107, 0.5118606, 10.789243, -6.8857436, 1.9368193, 1.3118637, 4.8916454, 9.130986, -0.38961402, 16.945936, 2.25016, -6.0051227, -1.140768, 6.329088, -5.1809816, 3.2621396, -6.2635307, 1.5504766, 0.12740932, 3.2878404, 6.470137, 4.1773615, -3.1134312, 2.4450285, 13.864686, 5.3967485, 12.620291, 6.4564176, 13.381375, 4.004222, -3.703709, -0.21630776, 1.9267706, 3.704061, 1.671123, -1.2152531, 0.3254373, -1.9442519}, {-1.9182734, 3.1906085, -1.301859, -1.907957, 4.8574843, -0.070754275, 9.032856, -3.141911, 2.886149, 3.823389, -4.3724294, 5.4117503, 3.441919, 5.937362, -2.3031175, 2.0482266, 1.740036, 11.376703, -0.5776517, -1.2787483, 3.208233, 3.3491807, -1.1682394, 5.7808695, -3.0556579, 2.6374214, 10.387196, -27.016474, 9.934639, -5.6436143, -1.5311762, 0.5469116, -1.7566139, 10.418222, -20.779293, -4.8991976, 2.4840803, -4.6893463, -5.18168, -0.57562995, -5.3646216, -3.3330262, -8.081387, 0.34369752, 3.35904, 6.22873, -10.208062, 0.12932424, 3.133645, 0.24309221, 1.2552673, 0.84190524, 9.090341, 1.048668, 2.5747392, 2.5211513, -5.2373123, 5.509604, -0.63637877, -4.5944524, 6.4958467, 1.6720644, -0.2875864, -0.30582845}, {-22.80636, 9.868933, -6.3510075, 3.8771458, 3.8652163, -5.3144145, 7.677416, 7.165745, -0.12494673, -6.9499006, 3.3609653, -51.964405, 9.732435, 3.7598848, 5.406988, 2.4790292, 1.4969596, 18.515514, 14.855724, 11.735039, -14.459944, 6.5410767, -7.5897913, -27.79469, -1.8394774, -53.503357, 29.21858, 11.500696, -1.3762968, -4.4219413, -2.4913814, 19.427267, 12.051912, 13.859248, 0.6204807, -2.1820805, -8.021636, -0.04123976, -1.9628319, -9.350461, 3.5334384, -7.535844, 1.5182744, 1.9095325, -4.064548, -14.949659, -3.0941632, -2.4856715, -3.6806536, 8.317421, 19.19612, -3.4104276, 20.911549, 9.491202, -8.535072, 3.0148249, 5.166303, -1.8203814, -0.46941483, 0.96013755, -3.9822667, 0.9799725, -4.1308074, -12.974715}, {-2.107933, -10.588674, -1.555271, 4.0306067, 2.6998596, 4.102021, 0.06735659, 37.849243, -0.48280257, -0.8451186, -3.5760093, 3.1749156, 11.678382, -5.019721, 0.47801793, -0.057290267, -1.7785747, -1.3552085, -2.4823017, -4.076868, -0.26345417, 3.7821167, 2.1250367, -0.9956739, -0.7269245, -0.71683633, -3.8636906, -1.7507596, -7.7248187, 2.3296463, 2.8464408, -0.103788786, 6.445134, -0.9703032, -0.41774482, 1.5841038, -0.39399362, 1.0535733, 0.12166701, 2.5813165, -3.0778728, 3.619105, -2.5243661, 1.3891027, 1.3113421, 0.6856136, 0.21814674, -2.5774982, 2.2473218, 2.700238, -0.7436886, 1.8056259, -4.9315977, -0.4220566, -2.4548304, -1.822585, 1.4711472, -0.03876451, 0.5107236, 2.020161, 4.2072597, -8.133773, 2.277957, -2.738252}, {-0.6983657, 9.026321, 4.208928, -2.9552205, -8.023291, 1.830525, 8.100768, 6.180628, -4.5849366, 5.3105984, -2.2876904, 2.9809651, 0.64315903, 7.6381464, 1.4639562, 5.261041, -7.4183397, 4.174439, -3.5258374, 6.862681, -7.297098, -2.1161182, -0.06496033, -3.5302455, -10.956997, -5.530489, -3.7702198, 4.5949907, 4.803587, -0.12013598, -5.9311137, 9.893857, -3.496244, 14.733146, 12.589846, 4.671134, -2.732942, -3.0207036, 2.5459573, 10.243281, 2.4413712, -6.4284577, 9.787397, 4.7343755, -1.3688918, -11.894662, 4.403988, 4.1824145, -4.0681334, 0.7447463, 6.5914354, -4.1629806, 13.04015, -2.9489892, -2.2312348, -0.12535687, -8.688831, -3.7587886, -2.571661, -9.671064, 0.40651774, 4.1082654, 0.6877241, -4.5913067}, {3.4362495, 13.905896, -3.7612844, -1.3590724, -1.0699381, 4.373643, 11.865076, -11.863012, 1.7800924, 12.201936, -2.6576366, -0.19746041, -1.7701072, 5.0689373, 1.9800229, -2.5681734, -8.308094, 11.514025, 1.5436631, 15.042322, -7.675714, -5.192557, 5.64204, -0.463907, -6.6326137, -6.1951056, 8.113846, -2.815928, 6.9907985, -0.6363355, -5.2530513, 8.310791, -4.752088, 5.7862897, 7.0538573, 13.357178, -3.4823308, -4.6875653, 3.2174282, -0.5375846, 8.462843, 8.980256, 10.040298, -0.13666211, -1.2507082, -18.74377, 13.46087, 5.2523274, -14.971052, 2.177673, 0.68500394, -3.5210176, 15.264537, 9.9061985, 9.508683, 2.2289405, -15.687067, 5.340028, 0.69497395, -4.1064687, -4.715247, -0.62858975, -9.657243, -1.5867517}, {-77.225266, 12.413321, 8.123924, 10.916265, 5.9194245, -7.007385, -9.177018, 6.33709, 6.578083, -9.11073, 14.041174, -67.55731, 11.441492, 0.68999416, -9.816299, -5.728888, 8.544437, -12.68798, 2.6324944, -5.5625615, -2.716843, -0.64179784, -6.404282, -7.965723, -10.151438, -80.60692, 10.443274, 7.731101, -27.838577, -12.088446, -5.362161, -5.964615, 16.832077, -6.388045, -7.7801247, -10.768313, 0.28083974, 2.4828503, 0.8088873, 1.1337744, 3.2795742, 5.5352755, 0.2669804, -7.454002, 5.584771, -57.454185, -6.789606, -5.792822, 4.6287427, -3.8072855, -9.724862, 17.924805, -40.880356, -1.7477205, -1.9922687, -13.988536, 2.7631853, 11.247642, 3.3351073, -41.45421, 12.780536, 1.9026077, 4.6763773, -9.041006}, {-2.1035116, 10.210511, -2.4140763, 0.24244112, -0.054426435, -0.0068724747, 8.941813, -5.436435, -4.8867755, 0.83347446, -2.2915022, -3.0211632, -4.883895, 0.83577687, 10.53585, -7.7151365, -9.053724, 8.645863, 1.6954013, -2.8949134, -4.178967, -4.0881634, -1.4265038, -2.5216463, -3.3066628, -1.4534408, 5.962994, -3.9831223, 11.582315, -3.5303571, -0.77548593, -1.5161455, -3.812676, -2.950901, -2.7504768, 9.304568, -4.422064, -1.2029924, 2.104879, -3.2041, -9.73791, 12.223415, 10.919778, 1.3805661, 0.6498506, -3.3031065, 21.676968, 4.9100695, 0.73930615, -1.9691411, 3.166993, -2.776508, -9.688827, 4.719429, -1.0362579, -1.484782, -5.2131686, 2.9124625, -4.1953363, -5.3012533, 0.9429295, -2.8364403, -3.3811858, 0.04876848}, {4.2564807, 1.9294691, 1.5801978, -3.0723984, -1.0386636, 0.91407657, -2.7645106, 4.175525, -6.0751324, -3.38989, -1.5233018, 5.208762, -0.5536066, 6.5789547, 6.68161, 7.6593013, 0.32791096, 10.926008, 8.604916, 11.845568, 1.9485526, 1.7051632, -0.23641124, 2.5845973, -1.8829486, -4.650769, 9.350156, -21.115812, 6.842668, -2.171631, 3.040339, 9.509135, -3.0141451, 1.1800534, -4.668465, 12.924338, -1.5395553, -1.0740253, 1.0460677, -2.4278276, 0.2821829, -3.6464026, 3.1101496, 1.3856943, 2.7110305, -7.053438, -21.412643, 5.897494, 2.0483549, 1.4241623, 5.9801373, 0.47511905, 19.483393, -11.753609, 7.032335, -4.7774963, -3.2704403, -2.8195593, 1.9607378, 1.0191851, 4.429687, 3.927747, 8.880798, -1.9530182}, {-5.4050307, -0.9248482, -2.5414178, -1.575313, 2.1195223, -3.231982, 2.1942303, 25.707623, 6.969507, 6.410031, 8.890355, 7.1510186, 1.3829005, -2.3303432, -3.1074836, 5.067935, -1.3154575, -7.7331724, -2.6091108, 0.23440358, 5.331901, -8.177961, -1.0731634, 7.1618543, 1.2565733, -6.5703797, 9.294145, -10.695018, -4.0401797, 3.9622808, 3.0400045, 5.216149, 6.864012, -4.2552013, -14.381714, 10.387061, 0.65578085, 4.8649673, -2.9713893, -2.4412234, -10.160706, -4.2517605, 3.7016525, -1.4764508, 2.65776, 0.46644366, -4.4545474, 19.868855, 4.2176266, 4.3735013, -0.9762067, 0.20053259, -25.386534, 5.5557046, 3.7340457, -3.5577142, -4.6676803, 6.5634294, 3.4114034, 6.491133, -1.9455316, -2.3343527, 6.4415417, 0.9965665}, {4.775367, 28.582155, 1.4390193, -0.13876796, -1.0684766, 2.3731415, 7.6853304, 3.8591917, 15.219787, 4.0865135, -3.2491295, 2.6747484, -3.7740824, 8.568463, 1.1203215, -4.918011, 0.2326327, 8.57415, 7.6536093, 8.910541, -3.7378252, 5.996956, -0.015919153, 2.6194274, -10.1282835, 3.0193136, 6.35236, 8.1313305, 3.1696253, 0.24995913, -5.549755, -0.9344971, -4.5351386, -14.0041685, 7.942187, 7.623212, -0.92462844, -0.9923122, 1.9460841, -8.133043, -0.4289805, 8.364364, 3.6795857, -11.451777, 2.3156343, -12.551354, -0.537872, 2.068335, -2.617085, 6.8500032, -8.130507, 1.2508024, 7.7895412, 9.349882, -1.7360568, -1.2940655, -0.7969026, 12.177081, 3.9663067, 5.3758597, -5.676466, 2.5491824, -6.68898, -8.728839}, {-0.12960926, 3.538217, 4.849145, 3.4819906, -0.1713108, 10.0386715, 9.922711, 15.822214, 17.854864, -9.191846, 11.393979, -6.5502844, 20.83879, 6.371203, -6.68604, -0.6391903, -2.649567, 22.601242, -0.82368565, 3.7851336, -2.3738027, 35.089085, -10.321469, -0.40423304, 3.4775884, -1.5242726, 14.6264, 22.246637, 11.464559, 2.7229722, -4.1922083, -1.1616766, 8.590533, 12.80959, 5.2900143, 18.553442, 2.2051332, 4.4560523, 1.0847595, -18.467957, 13.331713, 14.055613, 8.90068, -3.431272, -33.032867, 2.18914, 15.219005, 19.735693, -5.6154222, -0.12266445, -45.118443, -3.436398, 27.122755, -6.160513, -4.898407, 6.760926, 0.19814159, 6.462603, -2.4615521, 13.112459, 0.42811927, -1.2868418, -13.727786, 3.0416915}, {-6.856857, 10.650114, -9.885121, 2.2723382, 0.22749846, 5.3645625, -1.444087, -13.605956, 1.0187867, 4.008515, -1.8861802, -5.3345704, 2.266285, 16.922352, -2.734675, -6.4760427, -10.826205, 6.317138, -1.9035928, 9.892688, 4.402422, 0.4880271, 4.56013, 8.092144, -3.5433369, 2.3562965, 11.564242, 8.727824, 6.2677374, 2.0027587, -5.7733207, 7.407907, 4.058304, -4.2830114, 12.907026, 5.600208, 0.16941606, -3.2019968, 5.046889, -2.4020662, 4.304547, -30.794647, -7.7428584, -0.022412347, 0.35772285, -15.436721, 6.866502, -2.905248, 5.7001657, -2.4994862, 1.1741818, -1.5089463, 4.104354, 19.241776, 5.521835, -0.49960464, 14.238989, 0.18213113, 10.264904, -7.5594473, -2.866555, 1.6050476, -3.498472, -4.654689}, {-5.745434, 5.532342, -1.3431338, -4.063835, -3.3692317, -0.62347424, -3.1582913, 8.129817, -1.407938, -0.49170846, -0.66605544, 5.4597945, 0.86308855, 3.137528, 4.922295, 13.670414, 0.62441164, -1.324235, -3.809628, -1.0531893, -4.0834165, 1.5097561, 0.67805636, -0.23127906, -0.26557052, -6.0412664, -0.66680217, -21.354683, 5.077534, -0.035682578, -1.3484435, 3.4204, -2.2440934, -7.038941, -20.839682, 1.8427122, -4.1140723, 0.8600637, -2.500959, -4.8629208, 3.9050293, -1.8035537, 7.7333045, 5.999196, 2.9904625, -2.1926017, -5.2642384, -8.307119, -1.439455, -0.78405786, 6.4559784, 3.2843194, 28.767145, -5.565442, 4.2152996, -5.344819, 1.9720879, 2.3867738, -5.863995, -3.2807913, 9.950134, -0.35709238, -1.2284178, 0.6632179}, {2.0572221, 18.21807, 1.8098785, -0.15789987, -1.5993243, -0.23336405, 11.460514, 6.9899077, 14.427124, 3.6687844, 0.1762926, 6.951714, 0.8657538, 1.034607, 1.6186353, -3.981807, -0.68087816, 21.670708, 3.0351322, 7.2229295, -0.9938831, 7.81468, -1.9422374, 5.4585376, -6.832419, -4.22253, -0.48133808, 3.7670074, 1.2520211, 2.8790107, -0.45539242, -6.0158496, -1.348971, -12.755116, 6.19056, 8.954997, -1.4412216, -3.5523045, 1.7418349, -7.437715, 1.2863847, 2.1502914, 13.734704, -10.144311, 1.3515949, -10.713548, 0.6093026, -0.52859557, -4.483334, 6.40579, -9.551799, 0.84394026, 5.1194253, 4.8733892, -1.6332958, -3.6609805, 2.0034797, 19.90059, 3.2681384, 2.8279908, -6.8063717, 2.3838515, -11.937044, -5.2118874}, {-20.006323, 36.80449, -2.3922207, -6.6781187, 20.661095, -0.53248936, -2.8387208, 10.431995, 4.8172927, -0.9853197, 21.153416, -0.67190844, 2.2252607, 0.6162319, -9.057408, -23.171377, -21.741112, 9.688255, 1.7696065, 8.394905, -14.018625, -6.490931, -5.9564705, -6.5571995, -4.686545, -20.847313, 2.9959154, -7.5785246, -8.928353, 9.964999, -4.139275, 1.1661464, 8.794761, -11.566388, -2.8759022, 6.0678, 1.7452991, -4.371904, 2.880691, -23.356213, -5.723457, 1.2656368, -36.97396, -11.270259, -8.152847, -4.0990105, -6.915114, 14.585868, -2.20897, 1.7074518, -11.721596, 3.2190702, 56.317837, 14.763695, 6.5074186, 0.8131451, -9.660029, 27.192907, 1.581407, 2.0733678, -20.255028, 3.1959114, -13.824772, 0.884124}, {-12.867413, 15.94077, 4.86348, 0.83855915, -4.36288, 3.218661, -2.5863059, 23.696138, 0.6503533, 3.4452398, -0.8740332, -12.613629, 3.8997264, 2.2881982, 9.235734, 3.4591322, -1.4161069, 14.020665, 0.05005723, -2.6212125, 2.0513144, 8.719369, 3.6471188, 10.386672, 3.6372998, 11.236083, 12.844987, 15.417801, 8.051933, 0.49152964, 2.5219743, 1.6856188, -4.024405, 3.3068976, 9.854817, 6.161533, -1.9446552, 3.4475214, -3.176347, 7.6265454, 2.469579, 7.106205, 0.33714005, 4.4678555, -7.3469796, 5.527939, 10.602024, 3.4244454, 7.486919, 2.3469453, 1.7464932, 3.0294454, 0.2509184, 4.3692503, 4.0961895, -0.36333632, 6.182935, 1.8333836, 7.6289268, 7.8112717, 0.13845658, -2.7391531, 0.31303042, 2.689408}, {-8.994511, 7.2548237, -1.9222002, 4.8501496, -1.1075183, 4.266275, 4.6130314, 32.961655, 2.9383717, 7.0039744, 0.87846124, -5.138925, 6.579451, 1.5353403, 6.998562, 4.4306316, 5.6682897, 8.42453, 8.854848, -1.285861, 4.2610393, 3.3825238, 1.6933013, -1.162554, 3.645629, 4.917947, -6.2440743, 7.72789, -2.8422873, 5.548042, -3.9526339, 7.4166617, 0.3356519, -17.875263, 7.7690153, 7.081495, 2.1013253, -0.1597057, 0.3177185, -2.5211394, 2.2178512, 6.412011, 8.046467, -0.4078327, 1.3580039, 5.1023736, 7.919218, -14.225908, -3.5562222, 3.3335888, -5.898078, 3.0018551, 29.624746, 4.2679873, -7.7807293, -1.277434, 0.9263834, -0.25232545, 2.6863046, 0.2891788, -5.995614, 5.239541, 0.30462745, -1.106373}, {3.9991689, 4.2589784, 1.599714, -5.668953, -6.4874578, -3.643649, 2.285232, 0.2467557, -9.996842, 0.06545341, -2.841916, 3.3770428, -1.0278002, 3.0598247, -1.9446667, -1.2664604, 0.7985544, 5.7356944, -0.5906031, 7.483923, -8.189841, 6.8386035, 2.8474977, -1.6202291, -11.521206, -3.3823478, -2.5600982, 1.9447104, -0.4693068, -2.711457, 3.7576418, -5.3837976, -1.5728263, 10.83817, -1.0528147, -7.287944, 8.266441, -2.4357188, -0.66011536, 7.1291924, 0.40118593, -6.1413236, 5.492291, 1.0468334, 2.186278, -6.662473, 6.194667, -1.5829178, -0.48853102, -3.630315, 5.315213, -2.1682804, -2.632815, -4.00463, -1.7431155, -0.36988991, -2.346776, 3.4689279, -2.115953, 1.6322175, -2.7958884, 4.339476, 14.395495, -7.614282}, {-10.641441, 19.02632, -8.731736, -1.0991627, -0.8499387, -0.98512363, -11.785193, -11.479198, -3.6705377, -0.89566725, 5.6596723, 3.7055762, 4.362011, 12.734154, -7.2190757, -10.403321, -6.470395, 3.326899, -4.6978765, 9.882258, -1.3617268, 3.3526194, 1.049455, 2.643998, -0.38026264, -14.49912, 13.526675, 4.2352777, 7.9474554, -0.4880226, -3.3669333, -9.590149, 3.154762, -0.08328312, 7.1672187, -0.3469635, -1.1183952, -3.0945191, 2.5870204, -6.4701037, 2.2992747, -17.763151, -11.608036, 0.8518717, 0.76338685, -23.632622, -3.726442, -3.8652332, 2.2985423, -9.782594, 0.19619092, 0.41510358, 4.377232, 13.961056, 7.938958, -1.4542602, 12.757106, 2.949561, 1.7531731, -4.933688, -3.7869856, 3.4831896, 5.2886844, -2.2537305}, {-5.5766783, -9.175389, -3.026903, -5.933073, -4.198184, -0.9536752, -9.300112, -1.3384264, -7.9598846, -9.660033, -2.0959933, 6.6121464, 4.88583, -3.211139, -3.8402524, 17.366076, 0.21926327, -4.4186273, 0.028236475, 1.9452593, 1.0584766, 6.0574927, 0.6474023, -0.4703483, -0.021970281, -4.9129286, -1.9371588, -18.016771, 1.4980146, -0.16243583, 1.4556426, 3.8412223, 0.52389866, -3.7168658, -17.720642, 10.684761, -1.218949, 1.0603936, -1.279999, -4.992609, 0.7355927, 2.3278866, 13.81755, 5.5244775, 4.440258, -6.834379, -34.28629, -11.482425, -0.33140048, -1.7043585, 9.815961, 3.0370574, 23.086538, -8.479428, 7.016981, -8.059595, 8.9830475, -6.0638065, -4.128147, 1.0601948, 6.6615148, -1.2439333, 0.6882875, -2.4966295}, {4.613124, 9.082265, -1.9136082, -2.4350824, 3.530656, -2.7494059, 15.937783, 14.441156, 4.8395605, 18.859175, -14.260805, 0.33175758, 6.0851865, -8.552762, -2.4139678, -1.4217409, 3.200125, 7.507237, 3.8432822, 9.022449, 3.3216717, -4.435762, -0.3688069, 1.870826, 1.3985375, -7.943467, -3.1375802, 14.519934, 5.8718553, -0.3499091, -6.6527724, -0.6619701, 6.592842, -2.336601, 6.24617, 1.7082057, 0.3191183, -0.11890098, 2.2237277, -2.193614, -1.4320595, 3.1525338, 13.218056, -0.9913261, -10.350328, -9.598633, 7.6613264, -17.830276, -8.890862, 7.416755, 5.7155967, 0.8754918, -15.944909, 0.55008656, -14.720317, 2.2428446, -0.41118893, -3.5750802, 0.77292806, 5.8409014, 0.93863225, -1.2456682, 1.0197672, -1.7422476}, {-1.9705492, -1.6203705, -1.7019063, 5.868935, -11.096627, -4.148427, -0.94140565, 7.0794797, 8.969768, -11.314505, 0.18767563, 2.4281743, -2.127838, -2.8909712, 12.292164, 3.1786308, -2.9856997, -2.2850819, 6.6957493, 8.265265, -0.4709545, -3.6420865, 0.49986976, -1.6317042, -3.640056, -12.4025135, 4.9934087, 4.2092624, 3.1663532, -2.7118685, -1.0217359, -10.459242, 4.5276666, -1.5269191, 7.3763885, -3.6611362, -9.660875, 6.117194, 2.276365, 13.966853, 7.347689, 1.2305145, 7.8587646, 2.8533528, 5.3944774, -15.449263, 4.9042163, -8.136571, -1.4390212, 8.951455, 0.7677722, -0.35643882, -54.24611, 4.9552445, 6.510748, -2.7071326, 7.47681, 0.66162497, 1.4586797, -8.271728, 1.0895325, -3.6369717, 7.695714, -3.6338537}, {4.3064027, 3.5772467, 6.9380026, 5.707582, -0.9837317, 3.341314, 7.897276, 9.452972, -10.415804, 0.58800465, -2.8258028, -1.5560313, 1.9837837, 0.23215945, 8.579768, 1.3472469, -7.469365, -0.15179293, 2.6882157, 0.1286081, -13.066254, 0.08228978, -3.0591934, 5.0467534, -15.458063, -4.876235, -3.8465295, 1.960686, 1.3123671, -1.3818165, -1.7881458, -2.233119, -0.65149355, 11.469658, 11.181576, 3.6866844, -1.9223983, -0.23046942, 4.58399, 3.2293568, 2.0186837, 1.071724, 5.1443086, -3.6941924, 0.4712251, -19.135286, 5.381332, 5.6165833, 0.60425586, 7.200465, 2.7966912, -2.1342595, 21.699627, -0.45513463, 2.883928, 3.285621, -0.25689295, -2.6840274, 1.2188517, -4.2699013, 3.5848813, 2.020795, 1.5327435, -10.069685}, {5.089377, 8.373261, 7.418292, 3.7543426, -3.3454235, 1.796082, 11.862306, 5.8077865, -9.09318, -0.39889902, -2.893451, -1.9180677, -5.2828403, 1.317367, 10.194838, 0.7301064, -4.542, -0.5677649, 7.0776925, -4.3016295, -6.867532, 3.186702, 1.8324909, 1.9338529, -10.21666, 0.035400115, -0.48955822, 3.5898793, 2.916703, -1.3577412, -5.1923556, -0.50398374, -2.839775, 10.253384, 5.1476326, 12.290314, 0.16850682, 0.06968867, 2.848355, -3.0802402, 2.933377, -3.0837407, -2.3485236, 0.9321529, -0.9673796, -3.4458094, 13.02168, 0.28998542, -2.1065662, 3.6748197, 1.6361217, -1.2206218, -20.261747, -3.784994, 4.0966415, 2.8448849, 1.6117772, -9.988489, 0.95237166, -5.1858, 6.543712, 1.8994068, -1.9299517, -8.618434}, {1.4602158, 18.55899, -5.772867, -1.9819193, -0.410368, -0.0058713076, -0.029637659, 8.703188, -4.4546905, 4.5049424, 1.5971857, -13.710547, 5.706641, 0.868835, 4.5721054, -0.5785278, -5.542979, 10.217375, -6.455226, 15.769068, 3.1440194, -8.636596, -4.470914, 5.1647696, -2.2988422, -15.652937, 29.034027, -5.993542, -14.500379, -4.369802, -1.2003614, -22.385454, -2.4257812, -3.248385, 3.6149619, -15.21685, -5.9387445, -2.0884237, 1.0183715, -8.259243, -5.449142, -0.7324346, 1.9479434, -0.33283323, 2.9921129, 5.9582458, -5.8102746, -11.028385, 6.0568447, 2.2636905, -2.4905918, -0.30579922, -22.119019, 8.159566, 4.6376753, -0.4082676, -3.087362, -12.852315, 0.45483407, -6.01996, -1.6082027, 2.3520164, -1.669464, 0.77178323}, {-44.55853, 13.541344, -1.270317, -1.1726706, -1.3369852, -3.5705514, 12.157863, 13.443405, -11.25448, 27.338383, -12.329756, 0.8141419, 3.1691782, -3.512496, -1.2914582, 1.956021, -4.1661158, 21.258335, -11.161372, 9.782534, -1.7633137, 7.508771, -10.1181345, 12.167177, -3.7038426, -9.120752, 18.951977, 23.847992, 0.7120359, 9.224208, 5.770189, 4.2716184, 4.4214797, 0.87755823, 13.874118, -11.43389, 0.6896656, 6.769346, -6.954005, -12.324162, 30.377562, -20.375463, -2.0371041, -0.7374465, -7.5538616, -19.831861, -2.811287, 4.1526837, -2.8661444, -4.415735, -4.2802696, -14.554712, 4.7836285, 10.348393, 3.4095993, -2.0191891, 9.590478, 23.865473, -10.814908, -28.599762, 0.46917695, 3.8344247, -8.819192, -5.8426857}, {-0.3897644, 16.74998, 2.1506724, -3.0338483, 4.0978394, -3.423959, 19.518364, 12.065676, 17.816269, 3.4541917, -22.525671, 8.199158, 11.259591, 1.6998674, -5.6185737, -0.70006573, -2.7841623, 9.302212, -20.589378, 16.043226, 7.1766124, -9.35637, -4.2126513, -9.765884, 0.08613135, 3.8055356, 2.46858, 2.595638, 2.0876055, -3.4571247, -2.9145935, -5.2004137, 0.8371917, -10.047431, 6.634283, -6.401264, -1.4817846, -13.6943, 2.1234164, 12.358987, -2.596947, 0.6284261, 7.538715, -11.822183, -0.9577334, -25.80145, 7.173172, -9.367754, -4.2981744, 2.656771, -29.868822, 1.0223707, -0.22149727, -3.395852, -11.024895, 3.1400385, 1.011742, -2.129357, -10.454598, 6.856131, -8.920747, -2.1103637, 14.87378, 3.8558125}, {8.592141, 1.6878618, 1.1879902, -3.7660303, -8.890718, 4.209501, 11.781699, 21.159563, -5.486979, 8.26579, 1.9839212, 4.0357375, -2.8859904, -1.3736217, 9.515643, -4.842266, 5.5145535, -18.756737, 10.3343, 8.336116, -2.1878953, 14.141191, -0.9125142, 2.279483, -0.339834, -14.30353, -8.92617, 4.0602984, 0.2714489, 10.93632, 8.237363, 6.083141, -10.412636, -3.8365872, 7.0440974, 9.037618, 5.0618615, 8.726243, -3.1907806, -0.79528826, 3.0841227, -6.2678623, -10.132367, 5.130101, 6.8917446, -23.088455, -1.3568232, 6.3379006, 22.05953, -3.1449995, 17.542099, -4.5699935, 24.673605, -2.524407, 9.6791725, -13.714962, -1.8404462, -17.312391, -3.7853708, -5.814128, 12.9021015, 3.0202525, -14.360306, -6.8572483}, {3.0064795, 3.07368, 1.341527, 0.3911118, 0.006228611, -1.1523006, 3.5278304, -4.987342, -9.547951, 1.5311514, 0.08468056, -6.4373336, -6.3232255, 2.3607821, 2.8951027, -8.657012, -6.5840144, 9.820096, -1.048478, 4.1747546, -4.7781663, -0.97154856, 1.8819155, 0.9101397, -3.041951, 3.348883, 7.2145324, 8.637927, 10.602181, -1.0825561, 1.9027814, -11.0415, -4.4469867, 3.5623398, 6.5767684, 13.076196, -5.4295597, -3.41603, 2.9587, -2.2551987, -13.658692, 8.119133, 12.783893, 2.4699306, 1.0463465, -6.730733, 18.103928, 0.80178666, 1.1168941, -3.386971, 1.3505124, -2.130684, -1.5664123, 9.661941, 1.7222906, -1.3957361, -2.1720314, 0.61496466, -3.4542668, -1.3251188, 2.079178, 0.53552127, 1.5875181, 0.5663717}, {-15.300208, 13.881711, -1.0723344, 2.1061323, 3.3891413, 10.406495, 8.551154, 15.78666, 4.4835815, -11.262103, -11.897872, -9.406904, 9.380798, 5.877112, -4.457431, -6.389994, 1.8656863, 23.14734, -2.5657268, 5.8900905, 1.2755508, 4.604808, -2.1277149, 0.28844243, 0.27224448, 4.4431148, -2.6113946, 10.31349, -4.2790217, 12.487717, -1.8231541, 4.7934127, -5.054876, -3.8373027, 5.247299, 2.6938915, -3.0859556, -6.613354, 1.3269495, -5.8879642, 5.699821, 0.8765306, -7.0725074, -3.5771084, 1.556514, -12.773582, -3.4556026, -19.650816, 3.76428, 2.2782872, 1.0163956, -0.33046535, 9.322205, 5.813617, 0.086934984, 6.675172, 7.164734, 4.287843, 4.845048, 0.02648855, 3.9774103, -1.5958474, 4.307602, -4.7903934}, {0.2803378, 12.045087, 4.413333, 2.5367346, -3.3441415, 5.865521, 7.196652, -12.749801, 17.596212, 3.3175683, -2.6802306, 10.203808, -6.7425427, 11.8408985, -1.645383, -4.068364, -5.325949, 9.128285, 1.7828383, 8.855876, -5.027134, -1.5472724, 4.3919754, 0.29451898, -9.040075, 3.0283663, 0.5531648, 5.0806165, 1.9975438, 1.3741695, -2.9871726, 0.13979219, -0.96665287, -5.6083546, 10.957551, 1.5464368, -1.3910754, -1.8810353, 3.4675772, 10.7505665, 3.0175092, 3.8688445, 3.0022955, -4.4884753, -2.91012, -15.914675, -4.792219, 0.02435511, -4.15887, 9.35466, 0.7829297, -1.8379878, 15.138984, 10.607704, 4.3590994, 1.8869274, -2.6814878, 15.369692, 7.25484, -4.277192, -8.02211, 3.9955063, -6.1832952, -3.9212937}, {2.2946544, 5.228476, -1.0910933, 8.265389, 8.919193, 3.2923698, 14.425195, 4.8765173, 12.353681, -5.5810966, 15.670452, 8.698053, 10.684033, 6.712425, 12.107414, -7.2555065, 4.3129787, -2.5163593, 7.5744166, 26.696379, -5.696685, -16.063772, 6.005422, 1.3840046, 4.4448986, -7.1064286, 9.637635, -1.9026179, -8.567948, 7.447486, -8.292124, -11.500169, 14.666562, 15.05155, 25.77972, 1.82821, -2.6158793, -18.176807, 2.3397295, 13.161349, -0.96017146, -6.3795156, 21.833647, -11.763757, -9.385467, -22.04752, 11.029533, 0.22903165, -2.7305584, -0.5541457, 4.618511, -3.4940383, 64.36899, 5.932078, 13.005421, -0.6463398, 5.9659424, 4.538195, -0.60283995, -1.2661152, -9.699626, -6.314011, 2.4144166, 1.4435716}, {3.6734812, -4.843311, 0.4701192, -1.3278601, 0.95292133, 1.8002465, 15.814213, 10.100014, 9.468507, -2.4362144, 0.5415651, 13.364496, 3.3789377, -7.219516, 0.8093007, 0.8726454, -2.7690864, -5.797252, -1.5714583, 2.541508, 1.8819681, 19.945671, -0.25163388, 16.406088, 0.03625983, 1.1770406, 11.200526, 5.9489436, -10.56017, -2.931343, -4.4774833, 12.019818, -0.30803192, -16.068579, 2.1090631, -3.747988, -0.7701907, 9.842181, 2.5631866, -7.8104563, 9.351054, 5.543532, 8.830713, 10.700449, -2.7786412, -8.289875, 3.8470037, -11.052711, -4.3353753, 4.3769445, 11.4744835, -0.51861817, -7.7319636, 11.250941, -0.36570746, 0.45465082, -2.220564, 14.00405, -2.381708, -4.0071883, -6.571299, -5.0869403, 4.009396, 4.0897107}, {7.718094, -12.422758, 1.2808734, 4.2776775, 1.1306803, 0.98505116, -3.6290753, 43.896954, 4.8710904, -5.1434383, 2.1903565, 3.317886, 8.562724, -5.36639, 2.4619973, 1.2712481, 4.751411, -2.8120818, 0.041853707, -4.6757593, 1.6486374, 0.041415624, 0.25691512, 0.30312225, 2.2861307, -1.8468853, -1.6046433, 3.9275105, -3.8778605, 1.8185145, 3.3159873, 2.1481445, 15.575438, 0.41511533, 5.163362, 0.8587726, 0.987571, 2.0589435, -0.7897926, -1.4021056, 4.4855123, 8.482853, 6.0331106, 0.17495108, 3.2192569, 0.6085325, 7.228406, -4.8998733, -0.4609315, 0.76424533, -2.337318, 0.40397266, -1.3861556, -2.6542356, 1.468275, 0.66948754, 3.0392375, 1.3512955, -0.63565475, 1.7987632, -0.6830847, -1.7516758, 1.8922712, -2.5606272}, {-0.23984687, -10.881355, -1.4374752, 0.7257009, 1.6690971, 1.7968755, -4.0833874, 49.40607, 0.436476, -2.9143305, -0.08491516, 0.02986675, 11.48288, -7.907586, 4.8759737, -1.0349903, -1.411805, -6.3001485, -1.8846984, -3.4470122, 0.13007528, -3.6470513, -3.0162148, -0.49791044, -1.0638844, -0.33728158, -4.0396175, -1.5814271, -2.025054, 0.30232653, 0.6599708, -4.358488, 20.974983, 1.9895085, -2.2436907, -3.4281683, -0.28362244, -0.1621538, -0.22485036, -1.4987651, -0.39814523, -3.08622, -2.155752, -1.4153289, -2.0118175, 0.5423904, -2.2747223, -2.6268618, -0.92539483, -1.7303973, -0.47247654, -0.95684934, -3.9864764, -4.296525, -1.7837753, 0.48460224, 1.6617603, -2.9533896, -1.7787541, -2.9774413, -1.8286244, -7.641066, -2.6935916, 0.6336133}, {3.5477407, -9.99672, -1.6526835, -5.9641924, -7.786106, -0.5165107, -1.7620957, 0.48223478, -0.440669, -22.881573, 0.61654997, 2.1987464, -1.4079207, -3.9089398, -9.98038, 5.0397964, -7.5380554, -8.284083, 11.969988, -10.410247, -0.42898127, -11.567669, 3.999392, 10.757913, -10.604132, 3.0676482, 12.41138, -18.802752, -8.196163, -1.7695395, 5.571507, 14.59398, -1.7024821, 2.7510326, -21.360657, -14.589663, -14.495005, 9.732424, -2.0899882, 2.3329833, -5.4626117, -15.028431, -21.060867, -0.13435802, -11.401311, 6.447423, -17.97716, -20.640722, -1.2341352, -2.458981, -0.3421717, 4.4732027, 11.085673, 3.8324742, 0.98831457, -5.096436, -5.7810507, 3.4373066, -1.1579788, 0.20083053, 8.358841, -1.4461553, 1.2786372, -11.121384}, {-12.414926, 13.843951, 6.28913, 5.351704, 4.384637, 2.384863, -14.401586, 1.9412613, -2.2179909, -1.951065, -2.6051025, -3.297774, 8.454861, 9.239862, -7.3857408, 1.1607903, -1.4086137, -1.9355415, -7.5232716, 13.266877, -3.3101451, -10.738378, 1.3866326, -6.6528163, -0.6191746, 3.976359, 3.411194, 9.637486, 8.418142, 3.8315153, 10.115992, -8.560228, 13.473623, 9.062178, 5.186207, -6.089102, 5.15211, -7.0847707, -1.3903, 2.745442, 3.35088, -14.345247, -12.18607, 2.3443344, -4.3439283, -17.018753, 1.2290863, 0.42571133, -2.4231038, 6.2059793, -1.0515733, -0.9747113, 14.115498, -8.988281, -0.25116432, 2.2931755, 13.176465, 7.8099327, -10.635379, -6.2611074, -4.5021896, 3.7832155, 7.4984746, -2.557764}, {-5.06988, 14.659736, 1.6075768, -8.491831, -1.2129517, -9.919222, 3.6147842, -21.139593, -0.70379466, -9.128392, -10.459663, 11.08857, -5.6306477, 16.541386, 4.549974, -0.63527894, 1.9431772, -0.91643226, -0.33779806, 14.28253, -1.1628613, -14.266485, 12.271529, 7.1266847, 1.7621825, -2.1725276, 5.4927735, -3.6746888, 2.342026, -2.2219267, -2.3074334, -5.588606, 7.1801124, -7.961395, -3.6307085, -42.183506, -7.0470586, -6.9040112, 2.0142365, -7.3541484, -1.9494843, 1.9098653, 0.29924068, -8.80256, -4.294316, -10.650036, -3.8096588, -10.517398, 4.869498, -9.458055, 1.683904, -0.9245943, -29.680172, 2.3084877, -9.750379, -5.5243, -4.6443825, -9.89909, -2.893721, 1.7804568, 1.9696422, 5.0292277, 3.1392884, 2.000911}, {1.230496, 6.3723273, 1.2763233, 4.425798, -0.6927728, -0.15206458, 2.038487, 31.905348, 2.752071, -0.44948393, -2.0603492, -1.0589851, 10.102391, -2.9786868, 3.8349626, 0.06845902, 2.4180062, -1.6424171, -1.2352852, -2.9229918, -1.3942488, -3.1463153, 5.298916, -4.641372, -0.673265, 3.080637, -17.681927, -0.033250608, 3.2046857, -1.4644501, -1.9287113, -0.025457129, 12.368658, 1.7011445, 2.2833312, 0.36931935, 2.3620343, -0.38361254, 0.08372423, 0.7671847, -3.402664, 2.583216, -0.26085132, -1.6029501, -3.1562607, 2.8294377, 0.63295394, 2.0951052, 1.313892, -1.4012567, 0.69011426, 4.0755005, -6.4764023, 0.17936523, 1.048837, 4.260793, 0.88376635, -2.6960068, -1.4796057, 1.9839272, 0.102688566, -1.2937529, 2.3928497, -1.2121346}, {-2.7176967, 14.752405, 0.76868796, -4.2052746, 1.841593, -2.3886926, -12.269722, -2.493941, -3.2625346, 1.4746586, 0.98806834, 1.3870062, -2.0591862, 8.083207, -0.64076215, -6.216899, -2.5782378, 17.382053, 5.8544893, 7.1301637, 2.765826, -3.5058587, 0.35878974, 1.9550498, -0.29067272, -1.4905301, 5.4810467, -0.44708022, -1.2905352, -2.4466717, 2.244254, 2.0456896, -6.662133, 3.9876614, 3.7710874, -10.717995, -4.5509825, 0.15425098, 3.1320086, -0.4303685, 11.841195, -4.2712517, 6.2811, -1.9175682, -1.070854, -2.7099419, -21.80803, 1.3398306, 4.4699526, 1.9847915, 0.7807582, 3.1630042, -16.150637, 18.637367, 3.3537776, 2.1140618, 1.7701893, 5.8935714, 3.4736662, -3.774965, -1.4614332, 2.124695, 3.974523, 0.13230537}, {-13.148345, 4.086726, -0.8757719, -0.6535322, -1.7199806, 1.172726, 17.884617, 8.425563, 11.938944, 5.4201417, -11.2642565, 14.182288, 3.0598342, -3.6861644, -1.0018642, -9.450249, -0.6467828, -18.382923, -7.2786217, 8.305022, 1.364587, -0.011732345, 0.6208107, -4.7518425, 1.0349888, -14.9262905, -3.2918096, 5.718623, -8.479646, 4.847661, -8.63134, 8.622474, 4.75728, -18.37845, 10.576934, 0.2800358, -16.383734, 0.24074298, 2.4085665, 3.564517, 0.32740605, 4.4812183, 5.740118, -1.4941444, -8.799262, -17.57378, 3.9986029, -18.491405, -5.007531, 3.2188022, -0.896052, -3.6296892, 1.414096, 1.1959933, 13.755334, -0.41958994, -6.705324, 3.2888827, -4.594119, -3.1289582, -3.6306622, -4.652219, -6.900754, -7.5523252}, {-23.221685, 6.1473413, -2.7369573, -7.694127, -9.876647, 7.7221465, 15.018109, -21.701529, -1.2712908, 22.545103, -13.745708, 5.237014, 5.957997, 1.2825387, -6.2573085, -7.6441526, -6.7112975, 4.65406, -0.4625869, 13.571867, -0.619747, -28.264374, 0.6819087, 4.1359334, 1.1631413, -7.8962455, 13.308425, -34.759583, -8.490228, -2.702661, 5.555578, -5.1469617, 12.9752445, 1.1062605, -22.82705, -11.944279, -20.883413, -15.577409, -8.31295, 9.739376, -8.810044, -7.1798735, -6.7410216, -6.3387775, 11.200557, -29.542618, -16.210209, 0.22141303, -1.8350435, -5.897926, -17.544641, -2.9838097, -14.535121, 11.038858, 17.503225, -3.2386887, -5.4055276, 5.857475, 7.01769, 9.837769, -8.47026, -15.610303, 10.45221, 0.25533304}, {1.1930459, -1.5445977, 4.354026, 6.3695326, -2.2088373, 3.5139909, 7.578458, -0.90299356, 0.17740513, -1.6371998, 0.9628705, -0.65300256, -2.325238, -2.0354402, -0.7442642, 3.9963741, -8.332813, -4.3078003, 2.551501, 0.6934422, -1.6096311, -5.854302, 6.209498, 2.0007915, -8.934676, 1.138973, -11.975144, -1.4675721, 1.7220647, -0.10252425, -3.5657802, -5.533808, -0.9466546, -1.6474026, -3.0659163, -11.987911, -2.3074481, 0.9909398, -1.085203, 0.8830605, 0.36213943, -6.7126718, -6.0714493, -0.0008852278, -0.70964134, 1.4620657, -2.334173, 0.7787068, 1.9055227, 1.6281537, 0.48426086, 1.1508676, 6.3823457, -2.7905624, -3.1278262, -0.83150965, -5.781048, -0.14613412, -0.33708936, -5.960048, 4.717875, -3.614367, -7.3565636, 0.13247374}, {-27.764767, -19.542973, -7.8601413, 2.115332, -9.875669, 1.8996814, -3.0573502, 7.237808, -3.0794997, 10.421967, 3.5531633, -1.84566, 3.5248213, -4.410116, 7.3481603, 7.8922534, -2.101389, -0.38752663, -12.689181, -8.64238, -1.1826677, 1.5746522, 6.074859, -1.4940232, -0.44295746, -6.2049026, 1.1289747, 7.7766314, 3.6907349, 0.2238192, -3.9361963, -2.1689036, 13.865798, -4.2608933, 12.035236, -22.689928, -2.2759993, -7.0845947, 0.24666081, 2.633513, 10.815089, -8.146261, 8.601626, 2.8654413, 6.932969, -5.687763, -7.431803, -18.733807, 6.6716156, 2.140801, -2.1268947, 4.1505036, 11.657546, -5.190946, -2.9506967, -1.2224689, -11.914101, -8.9030905, -1.1232728, 1.0797911, 0.97592413, -4.757322, 1.2624651, -8.263353}, {1.3665568, 1.8348559, -9.728138, -6.623434, -0.14415815, -2.8013933, -1.3466692, -1.0229672, -2.1225967, 1.0077353, -13.71928, 4.7974443, 10.560056, -1.3846599, -1.6413922, -1.3327845, -1.2170725, -5.872116, 5.514488, -7.5556173, 0.9692437, -8.50954, -2.58846, -11.182038, 3.1121788, -14.878271, 11.352199, 1.2674091, -23.837753, -5.898213, 8.44056, -11.320794, 20.812485, -3.2041903, 1.8193649, 3.2611773, 4.357129, 1.1863378, 2.364683, 17.579388, 8.995763, -17.563118, -5.104248,